/***********************************************************************************************************************
* DISCLAIMER
* This software is supplied by Renesas Electronics Corporation and is only intended for use with Renesas products. No 
* other uses are authorized. This software is owned by Renesas Electronics Corporation and is protected under all 
* applicable laws, including copyright laws. 
* THIS SOFTWARE IS PROVIDED 'AS IS' AND RENESAS MAKES NO WARRANTIES REGARDING
* THIS SOFTWARE, WHETHER EXPRESS, IMPLIED OR STATUTORY, INCLUDING BUT NOT LIMITED TO WARRANTIES OF MERCHANTABILITY, 
* FITNESS FOR A PARTICULAR PURPOSE AND NON-INFRINGEMENT. ALL SUCH WARRANTIES ARE EXPRESSLY DISCLAIMED. TO THE MAXIMUM 
* EXTENT PERMITTED NOT PROHIBITED BY LAW, NEITHER RENESAS ELECTRONICS CORPORATION NOR ANY OF ITS AFFILIATED COMPANIES 
* SHALL BE LIABLE FOR ANY DIRECT, INDIRECT, SPECIAL, INCIDENTAL OR CONSEQUENTIAL DAMAGES FOR ANY REASON RELATED TO THIS 
* SOFTWARE, EVEN IF RENESAS OR ITS AFFILIATES HAVE BEEN ADVISED OF THE POSSIBILITY OF SUCH DAMAGES.
* Renesas reserves the right, without notice, to make changes to this software and to discontinue the availability of 
* this software. By using this software, you agree to the additional terms and conditions found by accessing the 
* following link:
* http://www.renesas.com/disclaimer 
*
* Copyright (C) 2017 Renesas Electronics Corporation. All rights reserved.    
***********************************************************************************************************************/
/***********************************************************************************************************************
* File Name    : weights.h
* Version      : 1.00
* Description  : Weights and biases of the layers
***********************************************************************************************************************/
/**********************************************************************************************************************
* History : DD.MM.YYYY Version  Description
*         : 16.06.2017 1.00     First Release
***********************************************************************************************************************/

#ifndef WEIGHTS_H_
#define WEIGHTS_H_
TPrecision ip1_weights[] = {0.0,0.0,0.0,0.0,0.0,0.0,0.0,0.0,0.0,0.0,0.0,0.0,-4.2791856458279653e-07,-2.8566885248437757e-06,-2.1362527604651405e-06,-8.901052694909595e-08,0.0,0.0,0.0,0.0,0.0,0.0,0.0,0.0,0.0,0.0,0.0,0.0,0.0,0.0,0.0,0.0,-8.278063567956906e-09,-3.317583363582344e-08,-2.113708660544944e-06,-8.955978955782484e-06,-9.924921323545277e-05,-0.0003290596650913358,-0.0006186349783092737,0.0034162213560193777,0.007779926061630249,0.0031964806839823723,-0.0008483324781991541,0.0020066192373633385,0.007283080834895372,0.0035203504376113415,-0.0002843216934707016,-0.000220034911762923,-0.00011837787315016612,-9.157324529951438e-05,-3.0145076379994862e-05,-1.19411538435088e-07,0.0,0.0,0.0,0.0,0.0,0.0,-3.8243985045482987e-07,0.00041060600779019296,0.00014713327982462943,-9.434831736143678e-05,-0.0019099159399047494,-0.002505516167730093,-0.0037129626143723726,-0.006073538679629564,-0.009355130605399609,-0.012437467463314533,-0.01395473163574934,-0.02145514078438282,-0.033248502761125565,-0.03913756459951401,-0.035427648574113846,-0.033786557614803314,-0.027604425325989723,-0.020638689398765564,-0.013931456953287125,-0.006554621737450361,-0.003106099320575595,-0.0014687868533656001,-0.00041477501508779824,-3.4654435694392305e-06,0.0,0.0,0.0,0.0,-8.429864237768925e-07,0.0008281522896140814,-0.0017804362578317523,-0.00656855246052146,-0.010166087187826633,-0.014311250299215317,-0.00980073120445013,-0.027914877980947495,-0.032923195511102676,-0.0225038081407547,-0.026772895827889442,-0.01871447078883648,-0.038071099668741226,-0.044466372579336166,-0.050017595291137695,-0.08025839179754257,-0.11768490076065063,-0.11257694661617279,-0.06864181160926819,-0.045043446123600006,-0.03088935650885105,-0.016248419880867004,-0.00821311678737402,-0.002493124920874834,-0.0004361396422609687,0.0,0.0,-5.5253089215057116e-08,-2.5637478756834753e-05,-6.0866092098876834e-05,-0.002996469847857952,-0.016498444601893425,-0.02157752588391304,-0.017132099717855453,-0.013463295064866543,-0.010439271107316017,-0.02125561609864235,-0.007832069881260395,-0.027142494916915894,-0.011603214778006077,-0.025825414806604385,-0.0041650147177278996,-0.047856029123067856,-0.021611690521240234,-0.059425827115774155,-0.08747295290231705,-0.06794881075620651,-0.061834726482629776,-0.041948918253183365,-0.050008684396743774,-0.03933337330818176,-0.010673641227185726,-0.0009181969217024744,-2.8917142117279582e-05,0.0,0.0,-0.00013029473484493792,-0.0006826304015703499,-0.008488396182656288,-0.02793615311384201,-0.027341874316334724,-0.04312871769070625,-0.04440309852361679,-0.028889337554574013,0.018755704164505005,0.014630128629505634,0.027040040120482445,0.12802326679229736,0.15652666985988617,0.15686699748039246,0.1437286138534546,0.19304755330085754,0.15977685153484344,0.05819494649767876,-0.020942246541380882,-0.0005725257797166705,-0.015036318451166153,-0.08019814640283585,-0.0778309628367424,-0.030853472650051117,-0.009100209921598434,-0.002378317294642329,0.0,-6.683966944365238e-07,-0.0006094101117923856,-0.0010905899107456207,-0.012912722304463387,-0.024370091035962105,-0.02945473976433277,-0.04410757124423981,-0.053459618240594864,-0.07518984377384186,-0.009387891739606857,0.015773724764585495,0.048021309077739716,0.1341518610715866,0.14183160662651062,0.13663244247436523,0.1751791089773178,0.20999875664710999,0.21231919527053833,0.1275530755519867,0.073759526014328,0.12014482915401459,0.11092198640108109,-0.023378396406769753,-0.12685129046440125,-0.07521200180053711,-0.028855551034212112,-0.007391256280243397,0.0,-6.0157541156513616e-05,-0.0006183345685712993,-0.0034398557618260384,-0.02580227516591549,-0.029234886169433594,-0.0358293354511261,-0.055297162383794785,-0.08569484204053879,-0.026690516620874405,0.02336944453418255,0.05362790450453758,0.05895606800913811,0.09152402728796005,0.10084027051925659,0.10238268226385117,0.14363038539886475,0.22346022725105286,0.20820017158985138,0.12150432169437408,0.0523684062063694,0.07845749706029892,0.13961544632911682,0.05956980213522911,-0.09370949119329453,-0.08985654264688492,-0.0298832468688488,-0.0018706127302721143,0.002062539104372263,-7.792308315401897e-05,-0.0008146448526531458,-0.0054512834176421165,-0.04228954389691353,-0.04947842285037041,-0.055671948939561844,-0.08118289709091187,-0.047819532454013824,0.02230963110923767,0.03449898585677147,0.03900093212723732,0.08551713079214096,0.0614064484834671,0.12511390447616577,0.17533837258815765,0.2761583626270294,0.2522211968898773,0.19894194602966309,0.11267141252756119,0.0717189833521843,0.058061279356479645,0.1622171700000763,0.16528235375881195,-0.04166461154818535,-0.09976636618375778,-0.02615429274737835,-0.0014000394148752093,-1.1398643437132705e-05,-0.00019837917352560908,-0.0004386077052913606,-0.005372777581214905,-0.04060276597738266,-0.04745630919933319,-0.06583067029714584,-0.06362999975681305,-0.03536716848611832,0.0106809725984931,0.04152045398950577,-0.004545511212199926,0.045098062604665756,0.12769006192684174,0.07144651561975479,0.03140438720583916,0.15343345701694489,0.23747733235359192,0.22729149460792542,0.19202262163162231,0.09465259313583374,0.040055081248283386,0.1387968212366104,0.2313774824142456,0.03857143595814705,-0.0981997400522232,-0.026001470163464546,-0.0005430391756817698,-1.5600817278027534e-05,-0.0004563804541248828,0.0031287684105336666,-0.009080465883016586,-0.03075367584824562,-0.04040805622935295,-0.05367238447070122,-0.03421740233898163,-0.019908592104911804,-0.00782330147922039,-0.046086154878139496,0.030888549983501434,0.0604386143386364,0.07213536649942398,-0.027990268543362617,-0.11856537312269211,-0.0806378647685051,0.09958600252866745,0.19020743668079376,0.16466815769672394,0.11837831884622574,0.09194734692573547,0.2004101723432541,0.3007732331752777,0.11467642337083817,-0.07749815285205841,-0.027217773720622063,-0.0003998191677965224,-6.2833451011101715e-06,0.0004038970801047981,-0.0030371216125786304,-0.010513287037611008,-0.060976386070251465,-0.0561586432158947,-0.008998570032417774,0.025083085522055626,-0.01593654975295067,-0.050394993275403976,-0.03127243369817734,0.0044145481660962105,0.009000170044600964,-0.03479306772351265,-0.25061121582984924,-0.40096381306648254,-0.3828115463256836,-0.11453915387392044,0.008386165834963322,0.1107301339507103,0.1318543404340744,0.16034841537475586,0.23672418296337128,0.3076532185077667,0.17431728541851044,-0.03501809388399124,-0.01694050431251526,-0.0004095642070751637,-3.889637355314335e-06,5.924525248701684e-05,-0.002791727427393198,-0.012860668823122978,-0.05976425111293793,-0.022099226713180542,0.06931902468204498,0.06283659487962723,0.002172863343730569,-0.0015803457936272025,0.046382807195186615,0.07291284948587418,0.0662551075220108,-0.11336732655763626,-0.4303151071071625,-0.5495352149009705,-0.48480528593063354,-0.20434804260730743,-0.04940357804298401,0.020424943417310715,0.035690270364284515,0.14047285914421082,0.28347766399383545,0.3315230906009674,0.22364425659179688,0.002987385494634509,-0.007042740937322378,-0.00019208286539651453,-9.73669500581309e-09,0.0006559771136380732,-0.0009713134495541453,-0.010703446343541145,-0.035306137055158615,0.013604135252535343,0.12053214758634567,0.14980395138263702,0.08055972307920456,0.07279365509748459,0.13781487941741943,0.12342345714569092,0.022881178185343742,-0.2960701882839203,-0.5094618201255798,-0.5770214200019836,-0.480805367231369,-0.2513716518878937,-0.09811196476221085,-0.07627405971288681,-0.0739450454711914,0.09664760529994965,0.27007004618644714,0.33105045557022095,0.20364055037498474,0.021254319697618484,-0.002892404096201062,-0.0005474084755405784,-2.4919345378293656e-05,-2.4746863346081227e-05,-0.0005205364432185888,-0.020411694422364235,-0.027758309617638588,0.08911371976137161,0.15204787254333496,0.2179451882839203,0.13428224623203278,0.1568249613046646,0.18750447034835815,0.13017690181732178,-0.03936661407351494,-0.3649708926677704,-0.54121333360672,-0.549517035484314,-0.4740804433822632,-0.21034111082553864,-0.09540583193302155,-0.08911730349063873,-0.024020440876483917,0.11323972791433334,0.20865772664546967,0.29057806730270386,0.1873527318239212,0.0163581483066082,-0.0019469390390440822,-3.27370798913762e-05,-1.0764550097519532e-05,-3.5476969060255215e-05,-0.0005507675814442337,-0.029294900596141815,1.568082006997429e-05,0.13967664539813995,0.1444368064403534,0.22348320484161377,0.18872864544391632,0.22840231657028198,0.26461297273635864,0.0718589723110199,-0.19939368963241577,-0.4925268292427063,-0.6061933636665344,-0.5395728945732117,-0.40379130840301514,-0.18670980632305145,-0.03734341636300087,-0.016459882259368896,0.05547665059566498,0.11637739837169647,0.19406971335411072,0.25027284026145935,0.14046649634838104,0.004429161548614502,-0.0032999785616993904,-0.0006343326531350613,-1.4886392818880267e-05,-4.058043487020768e-05,-0.0011253177653998137,-0.02935313619673252,0.011939790099859238,0.18147164583206177,0.20301085710525513,0.1895567923784256,0.20673047006130219,0.22457477450370789,0.2311180979013443,0.023372188210487366,-0.2902470827102661,-0.5277122259140015,-0.5399953126907349,-0.4426150619983673,-0.2763606011867523,-0.06989545375108719,0.021868836134672165,0.029272379353642464,0.08300108462572098,0.1271175742149353,0.16656598448753357,0.16670529544353485,0.06241409108042717,-0.01770811155438423,-0.008865661919116974,-0.001062245573848486,0.0,-0.00016969823627732694,-0.0022815021220594645,-0.035248663276433945,0.004788828548043966,0.18476799130439758,0.22718340158462524,0.1856423020362854,0.13855865597724915,0.22570976614952087,0.2578972578048706,0.01161216851323843,-0.2440098077058792,-0.46592190861701965,-0.4615807831287384,-0.3209650218486786,-0.120309978723526,0.024530282244086266,0.023453649133443832,0.03803692013025284,0.05859411135315895,0.06114418804645538,0.14018484950065613,0.083043172955513,0.026490557938814163,-0.014457376673817635,-0.004973545670509338,0.0014988606562837958,-6.020858108968241e-06,-0.00019645622523967177,-0.0025588858406990767,-0.05656707286834717,-0.011084516532719135,0.13391850888729095,0.18692459166049957,0.15860219299793243,0.15319223701953888,0.22721180319786072,0.2826063632965088,0.056990958750247955,-0.20613525807857513,-0.36516234278678894,-0.3342001140117645,-0.18301625549793243,-0.06554281711578369,0.017381718382239342,0.014086197130382061,0.008328641764819622,-0.01064409501850605,0.0577089749276638,0.09895029664039612,0.037881966680288315,-0.001386625925078988,-0.012861245311796665,-0.003119719447568059,-0.0015822267159819603,-3.2908888947247306e-09,0.0015158632304519415,-0.0017858233768492937,-0.05001886188983917,-0.022745903581380844,0.0886484682559967,0.16947023570537567,0.1491670459508896,0.1571245640516281,0.19555546343326569,0.27787891030311584,0.19960860908031464,0.04735884815454483,-0.11143631488084793,-0.13503451645374298,-0.07051903754472733,-0.019962411373853683,0.01740100048482418,-0.00854700617492199,-0.03775037080049515,0.015382586047053337,0.052724674344062805,0.05907376483082771,-0.001382325659506023,-0.009852871298789978,-0.015327000990509987,-0.004018389154225588,-0.0005523937870748341,0.0,0.004195092711597681,-0.0008624985348433256,-0.040910303592681885,-0.009871182963252068,0.08760753273963928,0.13255879282951355,0.14266109466552734,0.13710623979568481,0.19067290425300598,0.2841099500656128,0.2806796431541443,0.2070411890745163,0.0786757692694664,0.0143953338265419,0.034020066261291504,-0.009616682305932045,-0.010348440147936344,-0.06314193457365036,-0.05423817038536072,-0.015309672802686691,0.013101520948112011,-0.0062802862375974655,-0.03893648087978363,-0.020227676257491112,-0.011338598094880581,-0.001405132352374494,-1.1185286439285846e-06,-2.2627988371937136e-08,-0.00011731062841136009,-0.003251207759603858,-0.03209711238741875,-0.023601554334163666,0.052520815283060074,0.10314461588859558,0.1293479949235916,0.08723961561918259,0.12684661149978638,0.2130451500415802,0.27595099806785583,0.19403742253780365,0.09322105348110199,0.05240195244550705,0.017012543976306915,-0.0015626302920281887,-0.056472260504961014,-0.08553466945886612,-0.09766887128353119,-0.04928991198539734,-0.040090709924697876,-0.041079580783843994,-0.021933821961283684,-0.01281752996146679,-0.003931140061467886,0.003235886339098215,1.9258015981904464e-06,-2.192086334673604e-08,-6.553308935508539e-07,-0.0014566712779924273,-0.02222972922027111,-0.06612466275691986,-0.005561173893511295,0.05225570127367973,0.10045017302036285,0.14016127586364746,0.12598824501037598,0.16365911066532135,0.21130509674549103,0.19353221356868744,0.22314533591270447,0.14715524017810822,0.10234707593917847,0.036949701607227325,-0.010251522064208984,-0.08833272755146027,-0.10816678404808044,-0.10284385830163956,-0.0731455385684967,-0.024343227967619896,-0.0030893003568053246,-0.004954786039888859,-0.0015693255700170994,0.00035097182262688875,3.5553262023313437e-06,0.0,0.0,-0.00034175722976215184,-0.009726524353027344,-0.04098374769091606,-0.04735904559493065,-0.012906819581985474,0.0415753610432148,0.09271867573261261,0.14356042444705963,0.17947836220264435,0.2335049957036972,0.24183188378810883,0.2416023164987564,0.20926661789417267,0.10626328736543655,-0.0078234588727355,-0.06265833228826523,-0.149653360247612,-0.14973244071006775,-0.11786098033189774,-0.0687880665063858,-0.02711021713912487,-0.010564749129116535,-0.006472878158092499,-0.0009600411867722869,-4.946372882841388e-06,0.0,0.0,0.0,-0.0005718798493035138,-0.001312076230533421,-0.0061232224106788635,-0.01965857855975628,-0.029014168307185173,-0.049633435904979706,-0.03923414647579193,-0.034118637442588806,-0.0233032014220953,0.00028805460897274315,0.06124184653162956,0.05015667527914047,0.010402762331068516,-0.05988505855202675,-0.11118888854980469,-0.12873221933841705,-0.13349533081054688,-0.1137453243136406,-0.0794355571269989,-0.05842894688248634,-0.024516193196177483,-0.008613765239715576,-0.0019208245212212205,-0.00022222149709705263,-2.7373943112252164e-07,0.0,0.0,0.0,-1.2785326362063643e-05,-9.491192759014666e-05,-0.0012871434446424246,-0.005096213426440954,-0.02089163288474083,-0.041718143969774246,-0.06337828189134598,-0.10037469863891602,-0.1350555568933487,-0.14237035810947418,-0.16897696256637573,-0.1630118042230606,-0.15243199467658997,-0.1377568393945694,-0.11344576627016068,-0.10877455770969391,-0.08783279359340668,-0.05287742614746094,-0.03766551986336708,-0.031239721924066544,-0.012858322821557522,-0.003542815102264285,-0.0009528182563371956,-4.42933952626845e-07,-2.5981219664572563e-07,0.0,0.0,0.0,0.0,0.0,-7.703819574089721e-05,-0.001243484322912991,-0.004942063242197037,-0.011732246726751328,-0.018629811704158783,-0.03218716010451317,-0.028785904869437218,-0.026770448312163353,-0.025055943056941032,-0.03637998551130295,-0.04693879559636116,-0.041653167456388474,-0.031746555119752884,-0.03206203877925873,-0.02424612082540989,-0.009492801502346992,-0.007338308729231358,-0.010843629948794842,-0.005450220312923193,-0.00042322120862081647,-1.6320658460244886e-06,-1.1213294470735491e-07,0.0,0.0,0.0,0.0,0.0,0.0,-3.4127845083276043e-06,-6.331786426017061e-05,-8.098229591269046e-05,-0.00011395964247640222,-0.00034166721161454916,-0.0011790087446570396,-0.0016646238509565592,-0.001549868960864842,-0.0019243867136538029,-0.003849802538752556,-0.006034714635461569,-0.00571992713958025,-0.0038562510162591934,-0.0029275279957801104,-0.0036095164250582457,-0.0013407720252871513,-0.0014625542098656297,-0.0021494124084711075,-0.005794375203549862,-0.0013361393939703703,0.0,0.0,0.0,0.0,0.0,0.0,0.0,0.0,0.0,0.0,0.0,0.0,0.0,0.0,0.0,0.0,-1.5198168057395378e-06,-3.379845338713494e-06,-5.783377332591044e-08,-2.409740407216532e-09,0.0,0.0,0.0,0.0,0.0,0.0,0.0,0.0,0.0,0.0,0.0,0.0,0.0,0.0,0.0,0.0,-3.585205732292707e-08,-1.0532933458762272e-07,-9.030577174939936e-09,-2.6166464522248134e-05,-0.001238234923221171,-0.0010761996963992715,-0.0007674085209146142,-0.0003686400596052408,-0.000322741165291518,-0.00035584630677476525,0.0038655248936265707,0.005987693089991808,-0.0015433668158948421,-0.0009567164233885705,-6.396409298758954e-05,-2.1006762835895643e-05,-5.3694864618591964e-05,-4.8415222408948466e-05,-3.1479853532800917e-06,-8.795227302016428e-08,0.0,0.0,0.0,0.0,0.0,0.0,-6.350912684638388e-09,-1.888894303192501e-06,-3.427051751714316e-06,-1.338714241683192e-06,-1.9415463611949235e-05,-0.0008810574654489756,-0.005729063879698515,-0.009502994827926159,-0.010996663942933083,-0.013466589152812958,-0.001232950366102159,0.018960539251565933,0.028551887720823288,0.05126922205090523,0.02945595420897007,-0.0006752002518624067,-0.009265829809010029,-0.008783682249486446,-0.00821615569293499,-0.004467278718948364,-0.0019211021717637777,-0.0012397594982758164,-0.00043128489051014185,-7.584335435240064e-06,0.0,0.0,0.0,0.0,8.793621964287013e-05,1.537901880510617e-05,-1.3740187569055706e-05,-0.00024571942049078643,-0.0010889418190345168,-0.006500754039734602,-0.019235260784626007,-0.02998080663383007,-0.047475665807724,-0.06853437423706055,-0.04585033655166626,-0.02467311918735504,-0.011844320222735405,0.024779971688985825,0.018833521753549576,-0.043674029409885406,-0.06443773955106735,-0.052372079342603683,-0.04696014150977135,-0.034324683248996735,-0.01959952898323536,-0.012849371880292892,-0.00987806636840105,-0.0026438389904797077,-0.0031217187643051147,0.0,0.0,-4.5244412660849775e-08,0.0002989647909998894,8.589682693127543e-06,0.0008463275153189898,0.00703467195853591,-0.00124906818382442,-0.021562445908784866,-0.04245753213763237,-0.06082278490066528,-0.06524273753166199,-0.06920869648456573,0.011106627993285656,0.10759099572896957,0.1386229395866394,0.10153693705797195,0.042249321937561035,0.0004563872062135488,-0.012710398994386196,0.07586388289928436,0.10679718852043152,0.09400153905153275,0.05497278645634651,0.020887402817606926,-0.023286370560526848,-0.01643848791718483,-0.002440286800265312,-0.0009576380252838135,0.0,0.0,1.77601286850404e-05,0.0013608555309474468,0.002377096563577652,0.013805430382490158,-0.01482253149151802,-0.06321046501398087,-0.1254500448703766,-0.14866551756858826,-0.12703119218349457,-0.08159399777650833,0.0067086187191307545,0.09193889796733856,0.12356511503458023,0.10181040316820145,-0.03350856900215149,-0.08990319818258286,-0.02393476292490959,0.05210288614034653,0.14667871594429016,0.1927279233932495,0.14738807082176208,0.07507042586803436,0.013357018120586872,-0.026106394827365875,-0.003833790309727192,-0.0010077384067699313,0.0,-5.078287586002261e-07,-0.0019064852967858315,0.0015787624288350344,0.00028877222212031484,-0.01985020563006401,-0.05498078465461731,-0.11334485560655594,-0.17394539713859558,-0.22743342816829681,-0.185261070728302,-0.1140032634139061,-0.09653867036104202,-0.08523177355527878,-0.056658852845430374,-0.13479436933994293,-0.20687876641750336,-0.22353950142860413,-0.0897093117237091,-0.017205210402607918,0.09727436304092407,0.09764136373996735,0.06577138602733612,0.024047434329986572,-0.015205790288746357,-0.031203029677271843,-0.003710111603140831,-0.00022817024728283286,0.0,-3.7259003875078633e-05,-0.0014474999625235796,-0.0021230969578027725,-0.006129637826234102,-0.043801695108413696,-0.09671087563037872,-0.13982197642326355,-0.22502030432224274,-0.2493942677974701,-0.22815291583538055,-0.19837599992752075,-0.13367126882076263,-0.1587871015071869,-0.13562282919883728,-0.20651911199092865,-0.19378571212291718,-0.16878022253513336,-0.12892113626003265,-0.021115325391292572,0.028444804251194,0.0028980346396565437,-0.023996863514184952,-0.06426188349723816,-0.0966528058052063,-0.05420958250761032,-0.004978521261364222,-0.001491014496423304,-1.225025414441916e-07,-3.0188281016307883e-05,-0.000729620223864913,-0.001376045634970069,-0.009633027017116547,-0.04185301810503006,-0.10066615790128708,-0.13880354166030884,-0.22490353882312775,-0.27061477303504944,-0.2535409927368164,-0.20334848761558533,-0.12257115542888641,-0.06010289117693901,-0.029742969200015068,0.023279063403606415,-0.09240348637104034,-0.013462730683386326,-0.06526824086904526,-0.07052454352378845,-0.10180848091840744,-0.1256767362356186,-0.1516190618276596,-0.1834522932767868,-0.15038304030895233,-0.06735776364803314,-0.007879813201725483,-0.0010756438132375479,-6.530619430122897e-06,-2.7792875698651187e-05,-0.0005652660620398819,-0.0016308334888890386,-0.014241022989153862,-0.054429106414318085,-0.092556431889534,-0.11006671190261841,-0.17352695763111115,-0.22382692992687225,-0.1982196569442749,-0.1255553811788559,-0.08697536587715149,0.03343717381358147,0.1920122653245926,0.2993837594985962,0.11631974577903748,0.006752023473381996,-0.08752205222845078,-0.15549784898757935,-0.20802997052669525,-0.22666969895362854,-0.23980137705802917,-0.21283812820911407,-0.13699162006378174,-0.05530543252825737,-0.006497832015156746,-0.000657952215988189,-7.66441098676296e-06,-5.2288887673057616e-05,-0.00039980909787118435,-0.004047180525958538,-0.015007836744189262,-0.05266573280096054,-0.0967763364315033,-0.10985000431537628,-0.1299317479133606,-0.17077451944351196,-0.13686633110046387,-0.07470134645700455,-0.049770157784223557,0.14644493162631989,0.42853277921676636,0.5073545575141907,0.19660232961177826,-0.005138044245541096,-0.14244996011257172,-0.18074378371238708,-0.2420482337474823,-0.22661133110523224,-0.1931200921535492,-0.15622518956661224,-0.10162243247032166,-0.03324965760111809,-0.006537348031997681,0.00025064797955565155,-1.2291751545490115e-06,6.218313501449302e-05,-0.0001830492401495576,-0.0021669724956154823,-0.006266899406909943,-0.034707896411418915,-0.08505624532699585,-0.1076391339302063,-0.12343583256006241,-0.1652509719133377,-0.17165440320968628,-0.18519754707813263,-0.09531345963478088,0.18598517775535583,0.5882019996643066,0.5782190561294556,0.18540026247501373,-0.03806398808956146,-0.107387475669384,-0.16439032554626465,-0.1716838926076889,-0.1370970755815506,-0.104092076420784,-0.07338257879018784,-0.049202222377061844,-0.022777093574404716,-0.005364556796848774,0.0006360748084262013,-4.946168985497934e-08,-2.7950150979449973e-05,-0.0003397369000595063,0.0005301935016177595,-0.0011371760629117489,-0.02608039230108261,-0.05457625538110733,-0.07599890977144241,-0.1081039234995842,-0.14830607175827026,-0.249303936958313,-0.32414382696151733,-0.10877763479948044,0.21525627374649048,0.7167402505874634,0.5022311806678772,0.12945282459259033,-0.007891037501394749,-0.10379805415868759,-0.15870927274227142,-0.11465610563755035,-0.07206644862890244,-0.055308565497398376,-0.033393699675798416,-0.021885383874177933,-0.011362330988049507,-0.004889651667326689,0.00034085894003510475,1.995438287849538e-05,-6.037497769284528e-06,-6.967668741708621e-05,0.0009264744003303349,-0.0007791200769133866,-0.02307783253490925,-0.04647933691740036,-0.06910137832164764,-0.08149269223213196,-0.1707548052072525,-0.35625502467155457,-0.42482662200927734,-0.15446487069129944,0.2900785803794861,0.6412810683250427,0.4232870638370514,0.08672653138637543,-0.0615491159260273,-0.2015148550271988,-0.172535702586174,-0.1123761311173439,-0.07451625913381577,-0.05925232172012329,-0.04813980683684349,-0.03439518064260483,-0.016884218901395798,-0.005199024919420481,-0.00020999406115151942,-4.801931368092482e-07,-2.0226141259627184e-06,8.164851897163317e-05,0.0015860433923080564,0.000486741861095652,-0.028236698359251022,-0.051410380750894547,-0.07782068848609924,-0.08922684192657471,-0.20466235280036926,-0.3972643315792084,-0.4197526276111603,-0.07504928112030029,0.3479181230068207,0.5566573739051819,0.35370996594429016,0.02381022647023201,-0.23698914051055908,-0.3024459779262543,-0.22442179918289185,-0.14394091069698334,-0.09294093400239944,-0.06832537055015564,-0.04973524063825607,-0.026798197999596596,-0.015287080779671669,-0.0018677503103390336,-1.0907179785135668e-05,-1.9579765364596824e-07,-2.5865635961963562e-06,0.0005841974052600563,0.0004803273477591574,-0.005377117544412613,-0.04201722517609596,-0.08240001648664474,-0.09782154113054276,-0.120770163834095,-0.2284642904996872,-0.3339407742023468,-0.22280794382095337,0.027874665334820747,0.3878662884235382,0.5380133390426636,0.19643358886241913,-0.08648063242435455,-0.3551059365272522,-0.30784907937049866,-0.24529890716075897,-0.16882407665252686,-0.10780326277017593,-0.07934975624084473,-0.055006153881549835,-0.03342599794268608,-0.015257619321346283,-0.003338390728458762,-0.0003646525146905333,-2.2037866642676818e-07,1.3492544894688763e-05,0.0006708293803967535,-0.0016407921211794019,-0.010660597123205662,-0.062300171703100204,-0.13352400064468384,-0.16225436329841614,-0.18304622173309326,-0.19355693459510803,-0.13940633833408356,-0.09632745385169983,-0.009435189887881279,0.37093880772590637,0.488031268119812,0.04962875694036484,-0.2122439742088318,-0.40886548161506653,-0.3230995237827301,-0.23591342568397522,-0.16461655497550964,-0.1069408506155014,-0.08039684593677521,-0.06246546283364296,-0.04189300164580345,-0.023182088509202003,-0.006314798723906279,-0.0001744981127558276,0.0,7.358856237260625e-05,-6.233598833205178e-05,-0.0034103121142834425,-0.02020183950662613,-0.10968764126300812,-0.2036353498697281,-0.22784745693206787,-0.19898799061775208,-0.12522529065608978,-0.01865324191749096,-0.06320199370384216,0.09272661805152893,0.35352522134780884,0.344209223985672,0.0015301418025046587,-0.2521204650402069,-0.3462814688682556,-0.2698655128479004,-0.18198134005069733,-0.1300625205039978,-0.08693232387304306,-0.06224970519542694,-0.05508946627378464,-0.046026285737752914,-0.0361599437892437,-0.003824306186288595,-0.00015694342437200248,3.837525355265825e-07,-0.00011357745825080201,-0.0003951530088670552,-0.004537166561931372,-0.03670080006122589,-0.1464175134897232,-0.26649850606918335,-0.2600661814212799,-0.13895441591739655,-0.03247164189815521,-0.06404181569814682,-0.028110694140195847,0.09598683565855026,0.2052917778491974,0.1639963984489441,-0.07004950940608978,-0.21041440963745117,-0.18809835612773895,-0.15002191066741943,-0.10468253493309021,-0.07014278322458267,-0.06375283747911453,-0.07590345293283463,-0.0690319687128067,-0.0375298447906971,-0.010198508389294147,0.0006885979091748595,-4.816442014998756e-06,1.7218835637322627e-05,-8.424886618740857e-05,-0.000693993701133877,-0.006667500827461481,-0.045604996383190155,-0.1687989979982376,-0.2066439837217331,-0.15811742842197418,-0.08413852751255035,-0.006856914144009352,-0.05993581563234329,-0.0198983047157526,0.006560168694704771,0.12085913866758347,0.0356135219335556,-0.04103460535407066,-0.01591031812131405,-0.04738570749759674,-0.025308936834335327,-0.009367468766868114,-0.03897926211357117,-0.03937436267733574,-0.056804120540618896,-0.050646621733903885,-0.020852772518992424,-0.0015869333874434233,0.0006168738473206758,6.372901225404348e-06,0.0,-8.104501466732472e-05,-0.0020341183990240097,-0.009293803945183754,-0.034996237605810165,-0.10716582834720612,-0.06774625927209854,-0.03587121516466141,0.03215275704860687,0.057151008397340775,0.04777717962861061,0.024204479530453682,0.009383011609315872,-0.01280670240521431,0.0027361304964870214,-0.02778644487261772,0.08021655678749084,0.11761161684989929,0.10437062382698059,0.058209244161844254,0.00045085541205480695,-0.03720937296748161,-0.055125635117292404,-0.04675140976905823,-0.0246177576482296,-0.004426649305969477,0.0013036574237048626,3.002877565450035e-05,1.6249863620032556e-05,-8.769230248617532e-07,-0.002475257497280836,-0.005180464591830969,0.008559652604162693,0.08468219637870789,0.10093818604946136,0.09428189694881439,0.11213463544845581,0.07822801917791367,0.08030255883932114,-0.06595169007778168,-0.10735305398702621,-0.12052746117115021,-0.018142104148864746,0.021639250218868256,0.07871487736701965,0.14428409934043884,0.12967632710933685,0.06299232691526413,0.025214748457074165,-0.0112586859613657,-0.07006721943616867,-0.05328413099050522,-0.017092082649469376,-0.005712317768484354,-0.0013020987389609218,-8.09556469170275e-13,1.5742054529255256e-05,4.487346814130433e-06,-0.0024379154201596975,-0.003918158356100321,0.03622562065720558,0.19608457386493683,0.20152497291564941,0.1542454957962036,0.10487574338912964,0.0673823133111,-0.02729007415473461,-0.1833876371383667,-0.2636735141277313,-0.22244682908058167,-0.06731848418712616,0.03361246734857559,0.11462976038455963,0.18958313763141632,0.1484633833169937,0.04378431290388107,-0.005037407856434584,-0.04530881345272064,-0.05868884176015854,-0.03175380080938339,-0.010587308555841446,-0.0020552154164761305,0.0006725615239702165,-1.4945658642975812e-12,0.0,0.0,-9.534600394545123e-05,-0.008857269771397114,0.017940592020750046,0.1338731348514557,0.1778596192598343,0.11315056681632996,0.03257760778069496,-0.01033733319491148,-0.08664800971746445,-0.15696190297603607,-0.1336764544248581,-0.16521988809108734,-0.10770615190267563,0.028377065435051918,0.0953240841627121,0.1459570974111557,0.03987149894237518,-0.008536651730537415,-0.03535085543990135,-0.047512054443359375,-0.0343729630112648,-0.025766219943761826,-0.0057269735261797905,5.231974137132056e-05,0.002241617999970913,0.0,0.0,0.0,-5.080498340248596e-06,-0.006775580812245607,-0.010782784782350063,0.024166405200958252,0.03314875811338425,-0.026397041976451874,-0.10032179951667786,-0.14837764203548431,-0.1986047327518463,-0.223135307431221,-0.22292356193065643,-0.24699820578098297,-0.20656666159629822,-0.15485139191150665,-0.13422706723213196,-0.03418250009417534,-0.009772987104952335,-0.010773972608149052,-0.014366989955306053,-0.008718708530068398,-0.013312550261616707,-0.007566356100142002,-0.0018902623560279608,0.0009605525410734117,0.00020871571905445307,0.0,0.0,0.0,-1.1399880861517886e-07,-0.0005551475915126503,-0.008338266983628273,-0.01841902919113636,-0.030871326103806496,-0.051209259778261185,-0.06227008253335953,-0.09511697292327881,-0.15286915004253387,-0.15297800302505493,-0.13607117533683777,-0.15645477175712585,-0.1512228101491928,-0.14542071521282196,-0.1047385036945343,-0.053455643355846405,-0.01894569955766201,-0.012559354305267334,-0.005504067055881023,-0.002230618614703417,-0.0020350811537355185,-0.0004810696991626173,-1.03679412859492e-05,-3.7119589251233265e-06,-4.403314960654825e-06,0.0,0.0,0.0,0.0,0.0,-0.00030787521973252296,-0.0011199794244021177,-0.002674536546692252,-0.00495506776496768,-0.007590451277792454,-0.012081453576683998,-0.02147015556693077,-0.020751692354679108,-0.028467344120144844,-0.04334622249007225,-0.03823511302471161,-0.022982262074947357,-0.014743511565029621,-0.008180199190974236,-0.006569545716047287,-0.0030062287114560604,-0.0011759375920519233,-0.0008143784361891448,-0.00013969790597911924,-3.75162767340953e-06,-3.279410298873131e-09,-6.937612262447601e-09,0.0,0.0,0.0,0.0,0.0,0.0,-8.362987500731833e-06,-2.159136056434363e-05,-2.0341200070106424e-05,-2.5949109840439633e-05,-8.094760414678603e-05,-4.3840478610945866e-05,-0.0014309006510302424,-0.00037722091656178236,-0.0011386772384867072,-0.0015497778076678514,-0.001171531854197383,-0.0011442293180152774,-0.000708441250026226,-0.0007869662949815392,-0.0019059735350310802,-6.111407856224105e-05,-2.2758018531021662e-05,-8.486247679684311e-06,-9.284349289373495e-06,-1.9667511423904216e-06,0.0,0.0,0.0,0.0,0.0,0.0,0.0,0.0,0.0,0.0,0.0,0.0,0.0,0.0,0.0,0.0,-0.00015492213424295187,-0.0002330689167138189,0.00011813257879111916,4.9221898734685965e-06,0.0,0.0,0.0,0.0,0.0,0.0,0.0,0.0,0.0,0.0,0.0,0.0,0.0,0.0,0.0,0.0,-3.5236494113632943e-06,-1.0612337064230815e-05,-6.933625263627619e-05,-0.00013596548524219543,0.001078958623111248,-0.0008675638237036765,-0.0024852268397808075,-0.004979304503649473,-0.006817922927439213,-0.004058266524225473,0.0017399806529283524,0.006220285780727863,0.014750846661627293,0.0026076016947627068,-0.002216656692326069,-0.0026779393665492535,-0.0021158058661967516,-0.0016490486450493336,-0.00016506995598319918,-4.829512181458995e-05,0.0,0.0,0.0,0.0,0.0,0.0,-5.812673293803527e-07,-6.607919931411743e-05,-0.0003559172328095883,-5.200852683628909e-05,-0.0009793778881430626,-0.004149704240262508,-0.0013086552498862147,0.009694082662463188,0.007326210383325815,0.026938892900943756,0.023668276146054268,0.015477003529667854,0.02833583392202854,0.03806852921843529,0.03202080726623535,0.00786543544381857,-0.01661135070025921,-0.0309903621673584,-0.018170608207583427,-0.01709749549627304,-0.0134647311642766,-0.0057431673631072044,0.0034180732909590006,0.0035410872660577297,0.0,0.0,0.0,0.0,-5.709093784389552e-06,-0.00022959682974033058,-0.0009054861147888005,0.0004970126319676638,0.0007814752752892673,0.010572627186775208,0.03609437122941017,0.10563474893569946,0.13278034329414368,0.170950785279274,0.19051478803157806,0.19070318341255188,0.12423482537269592,0.09628478437662125,0.09983017295598984,0.055925264954566956,-0.038095179945230484,-0.07156488299369812,-0.09054990857839584,-0.07463150471448898,-0.05911165475845337,-0.03804909065365791,-0.010098686441779137,0.0019189509330317378,-0.00016766288899816573,0.0,0.0,-5.47815488971537e-06,-0.00017175372340716422,-0.0005981177091598511,-0.004717523232102394,0.009399696253240108,0.036576997488737106,0.04428351670503616,0.09424781054258347,0.20446644723415375,0.2403603196144104,0.2880990505218506,0.28368079662323,0.21354860067367554,0.1895884871482849,0.14455290138721466,0.1498834788799286,0.0937313586473465,0.005889846943318844,-0.06812253594398499,-0.09514258801937103,-0.13675826787948608,-0.13337033987045288,-0.0989738404750824,-0.04895628243684769,-0.005214868579059839,-0.0007934105233289301,-0.0005362709052860737,0.0,0.0,-3.175697929691523e-05,0.00010599169036140665,0.0008755173184908926,0.019951608031988144,0.06376233696937561,0.12005365639925003,0.1973123550415039,0.23484578728675842,0.26534274220466614,0.27157679200172424,0.24442777037620544,0.2269851565361023,0.2136687934398651,0.2351471334695816,0.2705288827419281,0.22343523800373077,0.11714708060026169,-0.004102272447198629,-0.05500132218003273,-0.0728612095117569,-0.11166328191757202,-0.1193922758102417,-0.07681175321340561,-0.017323864623904228,-0.003093891078606248,-0.0007578012882731855,0.0,-4.1111011341854464e-06,-0.0014858016511425376,0.0022059520706534386,0.016135290265083313,0.05299672856926918,0.09941987693309784,0.1403120905160904,0.15575139224529266,0.1773533821105957,0.1761733889579773,0.08007126301527023,0.09072835743427277,0.10016981512308121,0.08920197933912277,0.07014588266611099,0.0950569361448288,0.07956251502037048,0.053179070353507996,-0.008579539135098457,-0.06555196642875671,-0.06825774163007736,-0.10560419410467148,-0.17256788909435272,-0.09315408766269684,-0.028908343985676765,-0.004244836512953043,-0.00015953672118484974,0.0,-0.00016549459542147815,0.0024474430829286575,0.007842157036066055,0.050455302000045776,0.07786247134208679,0.14022669196128845,0.1116143986582756,0.13027673959732056,0.09220947325229645,0.02598988451063633,0.07774610817432404,0.04425749555230141,0.09209959208965302,0.04627682641148567,-0.006314881145954132,-0.02105872333049774,-0.08056154102087021,-0.05062750726938248,-0.0086475545540452,-0.03405166044831276,-0.009174873121082783,-0.022969499230384827,-0.18225215375423431,-0.12132272124290466,-0.03515176102519035,-0.005085981450974941,-0.0002550675126258284,-5.2681119996123016e-05,0.0010738399578258395,0.0020452411845326424,0.010508391074836254,0.0576692633330822,0.07536925375461578,0.10903351753950119,0.09765167534351349,0.10011374205350876,0.09937473386526108,0.1896028071641922,0.15729381144046783,0.07403434813022614,0.04161731153726578,0.0996812954545021,0.08104455471038818,0.025108113884925842,-0.020333819091320038,-0.06179187819361687,0.05675733461976051,0.009262503124773502,-0.00772117031738162,-0.04070509225130081,-0.11201908439397812,-0.14080440998077393,-0.04845208674669266,-0.006174991372972727,-0.0005385191761888564,-7.27396400179714e-06,-0.00017671695968601853,0.0015688256826251745,0.019599415361881256,0.059364091604948044,0.10160063207149506,0.05301683023571968,-8.643195178592578e-05,-0.03135195001959801,0.09172261506319046,0.1589364856481552,0.10081937909126282,0.04543859884142876,0.035491809248924255,0.10214122384786606,0.14568182826042175,0.10701431334018707,0.04012357071042061,0.01969766989350319,0.021093690767884254,-0.008588084951043129,-0.02661874331533909,-0.023179011419415474,-0.10508384555578232,-0.1414179801940918,-0.04426040127873421,-0.004495356231927872,-0.0005321234348230064,-1.0342469977331348e-05,-0.00023050635354593396,0.0023753889836370945,0.02580126002430916,0.0003403746522963047,0.040883488953113556,0.003599692601710558,-0.13521112501621246,-0.1346668303012848,-0.13553529977798462,-0.10841083526611328,-0.1439877152442932,-0.21947260200977325,-0.2701915204524994,-0.13375982642173767,-0.08156566321849823,0.006917636841535568,0.03578532487154007,0.04497522860765457,0.0030674105510115623,-0.018777616322040558,-0.029350169003009796,-0.04222310706973076,-0.09449794143438339,-0.09269391745328903,-0.026695461943745613,0.0005863875267095864,-0.00038823255454190075,-3.207496547474875e-06,-0.00015275311307050288,-0.001139098429121077,-0.0023117423988878727,-0.04615470767021179,-0.11858873814344406,-0.24389998614788055,-0.3586360514163971,-0.3494415879249573,-0.3610338568687439,-0.4497924745082855,-0.4964773952960968,-0.5763013958930969,-0.5853580236434937,-0.4094040095806122,-0.2744816839694977,-0.13672007620334625,-0.14005932211875916,-0.07075405865907669,0.05306004360318184,-0.024356234818696976,-0.011571263894438744,-0.05050944164395332,-0.095853790640831,-0.047878265380859375,0.006622678134590387,0.0035452935844659805,-0.00031294854125007987,-1.6442918422399089e-06,-1.7401793229510076e-05,-0.000493580533657223,-0.02325715310871601,-0.09452688694000244,-0.2794743776321411,-0.4891584813594818,-0.559594988822937,-0.4483107626438141,-0.4469166398048401,-0.470969557762146,-0.48411574959754944,-0.499194860458374,-0.45248058438301086,-0.39307901263237,-0.3044280707836151,-0.21901129186153412,-0.2136688381433487,-0.12646140158176422,0.056506138294935226,-0.014643387869000435,-0.006859387271106243,-0.09314766526222229,-0.16483518481254578,-0.00519472686573863,0.05453402176499367,0.02820756286382675,0.001752652577124536,-2.2932181309442967e-06,-2.9718217774643563e-05,-0.00017498122178949416,-0.027720030397176743,-0.1346578150987625,-0.3502174913883209,-0.5137675404548645,-0.48014792799949646,-0.3492894172668457,-0.2766167223453522,-0.21526005864143372,-0.13656838238239288,-0.14364323019981384,-0.08698020130395889,-0.1092304140329361,-0.19120176136493683,-0.21948742866516113,-0.1700330525636673,-0.14396855235099792,-0.06075427681207657,-0.05196911841630936,-0.04369889572262764,-0.12467983365058899,-0.1333523541688919,0.04713737219572067,0.11060550063848495,0.06159837543964386,0.014410426840186119,-5.506502020580228e-06,-0.001940472167916596,-0.0013633107300847769,-0.022193865850567818,-0.1005975753068924,-0.27285248041152954,-0.2833153009414673,-0.19248086214065552,-0.11657919734716415,-0.0448683463037014,-0.002120574936270714,0.04931453987956047,0.04134437069296837,0.15003621578216553,0.06741489470005035,-0.08429508656263351,-0.09666003286838531,-0.1628355085849762,-0.06763327121734619,-0.0759902372956276,-0.055056653916835785,-0.09715666621923447,-0.12642966210842133,-0.05646900832653046,0.08056606352329254,0.13875843584537506,0.07228220999240875,0.0013756206026300788,-1.8232017282571178e-06,-0.004241887480020523,-0.0017086513107642531,0.016635332256555557,0.010026849806308746,-0.01518463995307684,0.00636726338416338,-0.015189092606306076,-0.004240582697093487,0.030390001833438873,0.03703269734978676,0.010155201889574528,0.07151423394680023,0.20374280214309692,0.07657378166913986,-0.02931777760386467,-0.023037033155560493,-0.09983335435390472,-0.12639254331588745,-0.06937383115291595,-0.1478390097618103,-0.11163634061813354,-0.13282956182956696,-0.02790885791182518,0.18222498893737793,0.21271561086177826,0.08928260207176208,0.011006070300936699,-1.1535803423612379e-07,-0.0021770442835986614,-0.0018992912955582142,0.05892370641231537,0.12733155488967896,0.13570517301559448,0.1713293194770813,0.07238037884235382,0.0009394818916916847,0.08758195489645004,0.07299359142780304,0.13382446765899658,0.24875508248806,0.24469447135925293,0.09314575791358948,-0.00046433531679213047,0.09148550778627396,0.04917208105325699,-0.02429412305355072,-0.03492851182818413,-0.059366513043642044,0.03980617970228195,0.047491736710071564,0.11512073874473572,0.2597128450870514,0.3095633387565613,0.11342132091522217,0.01537640392780304,0.0,-0.0014966828748583794,0.0022392505779862404,0.08272311836481094,0.2294171154499054,0.24371975660324097,0.18907441198825836,0.12523210048675537,0.11946436017751694,0.15249411761760712,0.1665123552083969,0.23703885078430176,0.2834896147251129,0.20770511031150818,0.07392819225788116,0.07390225678682327,0.05970532447099686,0.007092909887433052,0.03409036248922348,-0.006341324653476477,0.035776615142822266,0.102881520986557,0.15053005516529083,0.1654660403728485,0.3235659897327423,0.3317936062812805,0.06895261257886887,0.005110105499625206,-3.043086280740681e-06,-0.0008199129952117801,-0.011939333751797676,0.07239288091659546,0.2647956609725952,0.3074485659599304,0.19158965349197388,0.23240388929843903,0.1541270911693573,0.1259661316871643,0.20344312489032745,0.2229093611240387,0.2889520525932312,0.24200046062469482,0.12230323255062103,0.026725158095359802,0.06733044981956482,0.1145060658454895,0.05335548147559166,0.0361931286752224,0.053906723856925964,0.14655479788780212,0.2007250338792801,0.33392277359962463,0.3950803279876709,0.2333485633134842,0.029282469302415848,0.00880888756364584,-1.0203629244642798e-05,-0.0009278401848860085,-0.008126956410706043,0.03922282159328461,0.21539990603923798,0.20563118159770966,0.19229601323604584,0.249052956700325,0.21699446439743042,0.21998414397239685,0.2518252730369568,0.27824169397354126,0.2516323924064636,0.20954857766628265,0.09813135117292404,0.08617305010557175,0.08997592329978943,0.11123139411211014,0.04109371453523636,0.014667754992842674,0.07567068934440613,0.16812334954738617,0.27374792098999023,0.33750930428504944,0.2870119512081146,0.16951386630535126,0.04441852867603302,0.004869685508310795,0.0,-0.0007285373285412788,0.0029868220444768667,0.04831341281533241,0.17990419268608093,0.19826966524124146,0.1964568793773651,0.2828669250011444,0.24695947766304016,0.24147918820381165,0.225768581032753,0.23351188004016876,0.0916355699300766,0.03189391642808914,0.007784093730151653,0.02587985433638096,0.030978664755821228,0.011386724188923836,0.1110699325799942,0.17108166217803955,0.1438605785369873,0.23730909824371338,0.27773094177246094,0.3015904724597931,0.23831239342689514,0.09337078779935837,0.016339512541890144,-1.7806356481742114e-05,-5.403755039878888e-06,9.850260539678857e-05,0.012172278016805649,0.05328219383955002,0.10909853130578995,0.14298224449157715,0.1639435887336731,0.17599143087863922,0.1888563483953476,0.22700679302215576,0.1929682046175003,0.12838003039360046,0.038041602820158005,0.031312715262174606,-0.0006164974765852094,-0.03404553234577179,0.02663511410355568,0.11467951536178589,0.20647993683815002,0.23588138818740845,0.14350736141204834,0.18694153428077698,0.25448620319366455,0.2709272503852844,0.17918306589126587,0.06367641687393188,0.006248861085623503,-3.6555201177179697e-07,-5.234887339611305e-06,-2.499138645362109e-06,0.008040014654397964,0.032673098146915436,0.07900916785001755,0.0760161504149437,0.12141899764537811,0.12273872643709183,0.1857912838459015,0.1897789090871811,0.1194455549120903,0.09620994329452515,0.033669713884592056,-0.05454247444868088,-0.09335856139659882,-0.10294544696807861,-0.04056873545050621,0.024614930152893066,0.14570003747940063,0.19584424793720245,0.19975727796554565,0.19089184701442719,0.19498036801815033,0.1291210800409317,0.0848861038684845,0.0320638045668602,-0.0017132775392383337,-6.748652481292083e-07,0.0,0.0,-0.0005471177864819765,-0.003345114178955555,-0.004408540669828653,-0.018431823700666428,-0.04560847952961922,-0.03995294123888016,-0.012025904841721058,0.026379801332950592,0.009628424420952797,0.020946968346834183,-0.04241982474923134,-0.12505589425563812,-0.12651380896568298,-0.12293296307325363,-0.07569031417369843,-0.024041416123509407,0.09307830780744553,0.16221335530281067,0.1396799087524414,0.14811033010482788,0.10391861945390701,0.04882996901869774,0.04033937305212021,0.022267956286668777,-0.0014237107243388891,0.0,0.0,0.0,-0.0006202675285749137,-0.015822460874915123,-0.03906775265932083,-0.08091486245393753,-0.14046305418014526,-0.1739923059940338,-0.1639542579650879,-0.1691906750202179,-0.18906442821025848,-0.13746318221092224,-0.07643888145685196,-0.06732725352048874,-0.02064787596464157,-0.04917846620082855,-0.04134109988808632,-0.011609199456870556,0.004094784148037434,-0.04631901904940605,-0.02147306315600872,0.020908044651150703,0.013076847419142723,0.009762665256857872,0.03624434024095535,0.021044710651040077,0.0031274924986064434,0.0,0.0,0.0,-1.334017997578485e-05,-0.005470531526952982,-0.018648777157068253,-0.033503882586956024,-0.04743041843175888,-0.08011703193187714,-0.11734887212514877,-0.12639889121055603,-0.11978640407323837,-0.11838535219430923,-0.09792469441890717,-0.07737144082784653,-0.048705317080020905,-0.0316200777888298,-0.0413752906024456,-0.045183710753917694,-0.05942729115486145,-0.06467968225479126,-0.03743298351764679,-0.033358898013830185,-0.02475087344646454,-0.016715828329324722,-0.003815836040303111,0.002775663509964943,0.003321167081594467,0.0,0.0,0.0,0.0,0.0,-0.00035733822733163834,-0.0014271739637479186,-0.004177398514002562,-0.007650765124708414,-0.008082440122961998,-0.008116024546325207,-0.009897471405565739,-0.01242618914693594,-0.012770595028996468,-0.01758825220167637,-0.01705619879066944,-0.0164451003074646,-0.020415475592017174,-0.02258816361427307,-0.017776992172002792,-0.010229646228253841,-0.007702129427343607,-0.0069474121555686,-0.0016681015258654952,-2.8608375941985287e-05,-4.263439450369333e-07,-4.3621324152809393e-07,0.0,0.0,0.0,0.0,0.0,0.0,-2.1894304609304527e-06,-7.370649655058514e-06,-1.8450371499056928e-05,-6.776241934858263e-05,-0.00011638404976110905,-8.989009074866772e-05,-0.000496301450766623,-0.0004944597603753209,-0.0006635042373090982,-0.0011659733718261123,-0.0011011018650606275,-0.0013345468323677778,-0.0009611200075596571,-0.0005159048014320433,-0.00030999458977021277,-0.00014289849787019193,-0.0007061268552206457,-0.00039950531208887696,-0.0014582963194698095,-2.418362237222027e-05,0.0,0.0,0.0,0.0,0.0,0.0,0.0,0.0,0.0,0.0,0.0,0.0,0.0,0.0,0.0,0.0,-1.1039136552426498e-05,-2.6742687623482198e-05,-2.8607919375644997e-06,-1.1919966880213906e-07,0.0,0.0,0.0,0.0,0.0,0.0,0.0,0.0,0.0,0.0,0.0,0.0,0.0,0.0,0.0,0.0,-5.744314801603423e-09,-1.8171881777107046e-08,-1.338962533736776e-06,-6.0711431615345646e-06,-0.00013407830556388944,-0.00016177746874745935,-0.00014724810898769647,-0.00015145668294280767,-0.00032753273262642324,-0.0002907033485826105,-0.001426875009201467,-0.0020699126180261374,-0.0009510319796390831,-0.0003538937889970839,-4.076902405358851e-05,-2.847871473932173e-05,-3.598162220441736e-05,-1.988227086258121e-05,-1.4511783774651121e-06,-3.9518543104577475e-08,0.0,0.0,0.0,0.0,0.0,0.0,-6.117108597436527e-08,-2.5058061510208063e-06,-3.5990553897136124e-06,-1.916637847898528e-05,-0.0001515145559096709,-0.0008410759037360549,-0.0029193421360105276,-0.005071717780083418,-0.0032969738822430372,0.001104766852222383,-0.0026780487969517708,-0.009024235419929028,-0.00746594974771142,-0.011099009774625301,-0.008070295676589012,-0.005761913955211639,-0.0076133268885314465,-0.006170084234327078,-0.003088834695518017,-0.0033560183364897966,-0.0027190831024199724,-0.0008021561079658568,-9.86964296316728e-05,-4.48185517143429e-07,0.0,0.0,0.0,0.0,-1.9965254978160374e-06,-1.7388947526342236e-05,-0.0006723911501467228,0.011353502050042152,0.009246285073459148,0.017513329163193703,0.027769627049565315,0.02279738523066044,0.04472239688038826,0.10376884788274765,0.13813626766204834,0.12756717205047607,0.1871548444032669,0.18450312316417694,0.15502244234085083,0.13616235554218292,0.1093367412686348,0.07927779108285904,0.048621390014886856,-0.016354557126760483,-0.02678188495337963,-0.012200665660202503,-0.004099522717297077,-0.0004751558299176395,-3.344914148328826e-06,0.0,0.0,9.412265171704348e-06,0.0001754967524902895,0.002591113792732358,0.011399907059967518,0.054644808173179626,0.07757935672998428,0.11164960265159607,0.16146986186504364,0.16505296528339386,0.2158794403076172,0.2656954228878021,0.2591220438480377,0.24521665275096893,0.21665407717227936,0.21482668817043304,0.18371255695819855,0.10272996127605438,0.10759878158569336,0.039350688457489014,-0.03223208710551262,-0.09249108284711838,-0.08853565156459808,-0.0887310579419136,-0.01968558132648468,-0.0016784485196694732,-0.00023263890761882067,-2.2279918994172476e-05,0.0,0.0,0.00039379214285872877,0.016899874433875084,0.04890892654657364,0.11272846162319183,0.16042590141296387,0.1832064390182495,0.16992266476154327,0.16166532039642334,0.18235237896442413,0.16369211673736572,0.09104875475168228,0.10121109336614609,0.07280948013067245,0.11339453607797623,0.13599741458892822,0.016531359404325485,0.009673932567238808,0.0006012021331116557,-0.055709417909383774,-0.15380746126174927,-0.17007572948932648,-0.15211275219917297,-0.054697975516319275,-0.0102674700319767,-0.0013337499694898725,-5.009131200495176e-05,0.0,5.132465958013199e-05,0.003524760017171502,0.03825715184211731,0.09739288687705994,0.15830489993095398,0.18843351304531097,0.1326911747455597,0.14628095924854279,0.1917964369058609,0.1700592041015625,0.1208842545747757,0.09782110899686813,0.18138742446899414,0.12463556230068207,0.12810032069683075,0.14155460894107819,0.0907839983701706,0.11379105597734451,0.0014402213273569942,0.02058398723602295,-0.039780691266059875,-0.1505267173051834,-0.16883404552936554,-0.07886723428964615,-0.02300996705889702,-0.0033752659801393747,-0.00023984246945474297,0.0,0.001709659700281918,0.0008398258942179382,0.042467180639505386,0.17612765729427338,0.2346183806657791,0.1838388592004776,0.07697988301515579,0.0652773305773735,0.08483938127756119,0.06732288002967834,0.07342655956745148,0.1491687297821045,0.15324817597866058,0.1971679925918579,0.1794091910123825,0.06016029417514801,0.061480604112148285,0.05921374261379242,0.08343386650085449,0.0689089298248291,0.010593932121992111,-0.1119680255651474,-0.18284457921981812,-0.11656942218542099,-0.030609246343374252,-0.0030442201532423496,-0.0001266551116714254,-3.550390772488754e-07,-0.0014847514685243368,-0.0006966296932660043,0.048199187964200974,0.19990591704845428,0.2101680040359497,0.14586728811264038,0.06393667310476303,0.055366210639476776,0.05389414727687836,0.05255598947405815,0.0033140939194709063,0.05967225134372711,0.08395127952098846,0.16000862419605255,0.17935220897197723,0.08698755502700806,0.0916215032339096,0.16234228014945984,0.11676374077796936,0.14494185149669647,0.10362973809242249,0.014149493537843227,-0.20942015945911407,-0.14828617870807648,-0.038517069071531296,-0.00392511673271656,-4.6269728045444936e-05,-5.489059185492806e-05,-0.0017224972834810615,0.004615973215550184,0.05237702280282974,0.17248134315013885,0.12730933725833893,0.08149071037769318,0.03538990765810013,-0.020124739035964012,-0.08731823414564133,-0.1623433381319046,-0.27943316102027893,-0.23496805131435394,-0.08727163076400757,0.17214901745319366,0.2926245629787445,0.20776832103729248,0.13756905496120453,0.1403374969959259,0.13987353444099426,0.208623468875885,0.13753096759319305,0.04487750679254532,-0.14577776193618774,-0.12388600409030914,-0.027450095862150192,-0.004355947952717543,-0.00010588214354356751,-7.73742503952235e-05,-0.00160883495118469,0.0005247760564088821,0.05485234037041664,0.07469890266656876,-0.002191792242228985,-0.07284988462924957,-0.15430603921413422,-0.2585955560207367,-0.3354640603065491,-0.4119220972061157,-0.45021292567253113,-0.3357539474964142,-0.0069699976593256,0.20561569929122925,0.24089378118515015,0.22214889526367188,0.19221231341362,0.1587604582309723,0.18239085376262665,0.23781031370162964,0.11621809005737305,8.928458555601537e-05,-0.09204885363578796,-0.07751097530126572,-0.015644436702132225,-0.002493414096534252,-2.450160354783293e-05,-2.6437930500833318e-05,-0.0013349429937079549,2.4053049855865538e-05,0.03828345984220505,0.0170627161860466,-0.11260863393545151,-0.21771618723869324,-0.33628615736961365,-0.36726632714271545,-0.3611491620540619,-0.32448798418045044,-0.23234203457832336,-0.10093934834003448,0.12356057018041611,0.17191430926322937,0.22422923147678375,0.13654331862926483,0.16581907868385315,0.15567508339881897,0.14394421875476837,0.15406495332717896,-0.031538572162389755,-0.08048854023218155,-0.10129347443580627,-0.05988696962594986,-0.005544034298509359,-0.0019644321873784065,-2.5532535801175982e-05,-9.470720215176698e-06,-0.0010723058367148042,-0.0032295561395585537,0.004649035166949034,-0.03424406424164772,-0.13812178373336792,-0.26157814264297485,-0.3313676714897156,-0.3274979591369629,-0.18630562722682953,-0.06026928499341011,-0.05501087009906769,0.051271483302116394,0.15473973751068115,0.31645408272743225,0.17067033052444458,0.089349165558815,0.07045017927885056,0.10880859196186066,-0.00617061834782362,-0.10596522688865662,-0.21965473890304565,-0.17379938066005707,-0.10838720202445984,-0.043147992342710495,-0.0006136585143394768,-0.0005983946612104774,-3.4371158108115196e-05,-5.33298407390248e-06,-0.0006255820626392961,-0.002062729559838772,-0.0029270618688315153,-0.05358228087425232,-0.13371342420578003,-0.2352641075849533,-0.2941678762435913,-0.23033203184604645,-0.13603103160858154,-0.16189639270305634,-0.11205845326185226,0.07728853821754456,0.22510194778442383,0.20050619542598724,-0.0009887979831546545,0.0698455274105072,0.09153037518262863,0.1180509626865387,-0.07166941463947296,-0.24879629909992218,-0.22827883064746857,-0.2022334635257721,-0.11979137361049652,-0.03917228803038597,-0.0042573134414851665,-0.0005794112803414464,-0.0005886002909392118,-0.0009113625856116414,0.002066694898530841,0.0005365672404877841,0.0006646536639891565,-0.024506116285920143,-0.11854639649391174,-0.2194599211215973,-0.24978049099445343,-0.2111291140317917,-0.1565457433462143,-0.1831454038619995,-0.14249342679977417,0.08018418401479721,0.10281625390052795,0.09529419243335724,-0.0050539313815534115,-0.014739821664988995,0.054189324378967285,0.03499888256192207,-0.03778097406029701,-0.09989084303379059,-0.045981816947460175,-0.10989265143871307,-0.10825376212596893,-0.040481358766555786,-0.011542143300175667,-0.003318700473755598,-0.0004288968921173364,-0.000299682782497257,0.00507236085832119,0.005360645242035389,0.013931110501289368,0.02679768018424511,-0.0443665012717247,-0.12682466208934784,-0.21378295123577118,-0.23907902836799622,-0.22800494730472565,-0.20570728182792664,-0.06684771180152893,0.08975709229707718,0.1403316706418991,0.134001225233078,0.030590130016207695,-0.07541650533676147,-0.008983202278614044,0.014556550420820713,0.09235444664955139,0.14116650819778442,0.12010655552148819,0.08177921175956726,0.004973806906491518,-0.020047159865498543,-0.01898280717432499,-0.004902568645775318,-0.00019687096937559545,-7.26885491530993e-06,0.0035282799508422613,0.016500113531947136,0.059432752430438995,0.09548943489789963,0.02090144343674183,-0.09041805565357208,-0.1666022390127182,-0.2577328085899353,-0.2611112892627716,-0.275299608707428,-0.1581983119249344,-0.023684915155172348,0.07225780189037323,-0.033847562968730927,-0.14286981523036957,-0.14136174321174622,8.419528603553772e-05,0.1495445817708969,0.17196977138519287,0.15682992339134216,0.185652494430542,0.18891358375549316,0.08941864222288132,0.014100302010774612,-0.02617533691227436,-0.005396175663918257,-0.0002075691445497796,0.0,0.0031967959366738796,0.021983489394187927,0.11667978763580322,0.14735335111618042,0.05514974519610405,-0.03922564163804054,-0.11735398322343826,-0.2362544983625412,-0.414422869682312,-0.4702100455760956,-0.3989427089691162,-0.2887203097343445,-0.23827242851257324,-0.2660992741584778,-0.19112975895404816,-0.0026010978035628796,0.16228505969047546,0.1332353800535202,0.18053823709487915,0.09194046258926392,0.20883490145206451,0.236845925450325,0.1284860223531723,-0.037680838257074356,-0.039144787937402725,-0.004354945849627256,-0.0001555740018375218,-0.00011095847003161907,0.00285495538264513,0.034214086830616,0.18389663100242615,0.18578752875328064,0.15594834089279175,0.06163034960627556,-0.08091522008180618,-0.15367402136325836,-0.31238240003585815,-0.42613115906715393,-0.39714673161506653,-0.3964266777038574,-0.3414846658706665,-0.25433820486068726,-0.005864224396646023,0.19759312272071838,0.22984488308429718,0.23709796369075775,0.1709272265434265,0.1314767450094223,0.2568722367286682,0.2386869639158249,0.07062726467847824,-0.079445019364357,-0.031414516270160675,-0.005088581703603268,-7.130973972380161e-05,-1.3588901310868096e-06,0.0021712856832891703,0.03627144172787666,0.20677945017814636,0.22537364065647125,0.23686327040195465,0.12625263631343842,0.04670028015971184,0.014341944828629494,-0.04980841279029846,-0.17648617923259735,-0.26422861218452454,-0.27571195363998413,-0.21624761819839478,-0.08067777007818222,0.03500751778483391,0.15374203026294708,0.263686865568161,0.2600054442882538,0.19589467346668243,0.16871106624603271,0.23202194273471832,0.1264185905456543,0.009725295007228851,-0.06582089513540268,-0.02260635793209076,-0.0038771415129303932,-4.4935230107512325e-05,0.0,0.00016484296065755188,0.023103073239326477,0.1765861064195633,0.25845715403556824,0.21166956424713135,0.20292870700359344,0.13904671370983124,0.15431340038776398,0.1403348743915558,-0.027309194207191467,-0.14137385785579681,-0.21023152768611908,-0.09680110961198807,0.010028041899204254,0.006281145382672548,0.11573893576860428,0.18029943108558655,0.20510955154895782,0.15297722816467285,0.19604991376399994,0.11735909432172775,-0.002096105134114623,-0.043315257877111435,-0.05366969853639603,-0.015560719184577465,-0.0014793270966038108,-3.7613003769365605e-06,-2.335716999368742e-06,0.0002059224498225376,0.02004437893629074,0.1156216710805893,0.18863774836063385,0.16201093792915344,0.1637178659439087,0.11894594132900238,0.08340146392583847,-0.003183656372129917,-0.04843149706721306,-0.09177551418542862,-0.08093350380659103,-0.05157090350985527,-0.030877308920025826,0.027213117107748985,0.09992846846580505,0.10055187344551086,0.1647159308195114,0.1784951239824295,0.10121263563632965,-0.01668284274637699,-0.06908046454191208,-0.07734648138284683,-0.0551786832511425,-0.01287068147212267,-0.0017270941752940416,-1.0155376628517843e-07,-2.262725729451631e-06,8.361593245354015e-06,0.022338861599564552,0.08285141736268997,0.13128218054771423,0.14558131992816925,0.14743608236312866,0.10456081479787827,0.007972021587193012,0.009990351274609566,0.014775521121919155,0.022410275414586067,-0.04145492985844612,-0.04170906916260719,-0.02310970611870289,0.005394321866333485,0.06309784203767776,0.08631253987550735,0.11067844182252884,0.11311297118663788,0.027166105806827545,-0.07347860932350159,-0.052142538130283356,-0.04308474808931351,-0.03188539668917656,-0.008539315313100815,-0.0001410928089171648,-1.8748389152278833e-07,0.0,0.0,0.013456135056912899,0.06668784469366074,0.13549494743347168,0.174770787358284,0.19936341047286987,0.18344543874263763,0.05132881551980972,0.05199239403009415,0.05565129593014717,0.05475391447544098,-0.02164151892066002,0.02589198388159275,-0.027906589210033417,-0.004178806208074093,-0.04034408554434776,0.053622253239154816,0.09709112346172333,-0.011013696901500225,-0.06498324126005173,-0.072928287088871,-0.055600035935640335,-0.02971598133444786,-0.013389292173087597,-0.005041595082730055,0.00021490755898412317,0.0,0.0,0.0,0.004572112113237381,0.034859027713537216,0.0834808498620987,0.1286362260580063,0.21541760861873627,0.23687730729579926,0.198841854929924,0.2129717320203781,0.2738213539123535,0.24372488260269165,0.21141642332077026,0.21749065816402435,0.17192234098911285,0.09138861298561096,0.08602917194366455,0.042807452380657196,-0.06571300327777863,-0.07946387678384781,-0.06633330881595612,-0.03531366214156151,-0.021905863657593727,-0.011425008997321129,-0.006750222761183977,-0.001267144689336419,-4.604741661751177e-06,0.0,0.0,0.0,0.00047175848158076406,0.0008079536492004991,0.010348490439355373,0.035113878548145294,0.07622068375349045,0.1260422319173813,0.19917184114456177,0.24745303392410278,0.27870094776153564,0.287407249212265,0.2950857877731323,0.23124940693378448,0.14598950743675232,0.0522318109869957,0.027676410973072052,-0.0016443176427856088,-0.015761110931634903,-0.007567134685814381,-0.025485755875706673,-0.029599504545331,-0.010619690641760826,-0.0019710741471499205,-0.00010205448052147403,-3.969516546931118e-05,-2.3094742118701106e-06,0.0,0.0,0.0,0.0,0.0,0.0002695321454666555,0.003914531785994768,0.006483729928731918,0.013912016525864601,0.0100918710231781,0.00643791863694787,0.004614234436303377,-0.00018132510012947023,-0.008343830704689026,-0.021328015252947807,-0.03319685906171799,-0.02116994746029377,-0.0018385981675237417,-0.0022911177948117256,-0.0034895797725766897,-0.007406775839626789,-0.01124578807502985,-0.006531059741973877,-0.0004093413590453565,-4.31963853770867e-05,-1.0760875284177018e-06,-1.0609039691189537e-07,0.0,0.0,0.0,0.0,0.0,0.0,-9.624041013012175e-07,-3.539864337653853e-06,-1.0349918738938868e-05,-4.0042792534222826e-05,-9.754653729032725e-05,-0.00028993241721764207,-0.000838752428535372,-0.0007748493226245046,-0.0013798923464491963,-0.0024424318689852953,-0.004464257042855024,-0.004008234944194555,-0.0031583800446242094,-0.0025188513100147247,-0.002080998383462429,-0.0015675161266699433,-0.0007637225789949298,-0.0003837491385638714,-0.00015581058687530458,-1.7484995623817667e-05,0.0,0.0,0.0,0.0,0.0,0.0,0.0,0.0,0.0,0.0,0.0,0.0,0.0,0.0,0.0,0.0,-0.001691640936769545,-0.0037737172096967697,-7.745949551463127e-05,-3.227479055567528e-06,0.0,0.0,0.0,0.0,0.0,0.0,0.0,0.0,0.0,0.0,0.0,0.0,0.0,0.0,0.0,0.0,-9.890404726320412e-06,-6.137289892649278e-05,-0.0065270294435322285,-0.01572052761912346,-0.008136555552482605,-0.0056675635278224945,-0.013181731104850769,-0.019348731264472008,-0.03331755846738815,-0.021096887066960335,-0.00905747339129448,-0.018552375957369804,-0.020825592800974846,-0.008683793246746063,-0.003613519249483943,-0.0054705385118722916,-0.004584977403283119,-0.005188313312828541,-0.005726180970668793,-0.0011985718738287687,0.0,0.0,0.0,0.0,0.0,0.0,-1.533731506242475e-06,-0.00011594821990001947,-0.00031009907252155244,-0.00017632098752073944,-0.007783775217831135,-0.026792824268341064,-0.02787945047020912,-0.02824391797184944,-0.0647406131029129,-0.08079906553030014,-0.10183276236057281,-0.09453746676445007,-0.07745321840047836,-0.08584245294332504,-0.08384258300065994,-0.04744367301464081,-0.03337715193629265,-0.018345225602388382,-0.009688825346529484,-0.007259106729179621,-0.00879376195371151,-0.004759377334266901,-0.0006873226375319064,-9.794220386538655e-05,0.0,0.0,0.0,0.0,-3.385943273315206e-06,-0.0004662510473281145,-0.0005017264047637582,-0.0008031647303141654,-0.012758661061525345,-0.031743887811899185,-0.05493166670203209,-0.08127043396234512,-0.11410754919052124,-0.13889750838279724,-0.18479852378368378,-0.22056014835834503,-0.1995326578617096,-0.18810096383094788,-0.165394589304924,-0.1228676587343216,-0.08085697889328003,-0.026269394904375076,-0.0013748900964856148,0.004408498294651508,0.003798533696681261,0.0026422131340950727,-0.002891529118642211,-0.0005001050885766745,-7.32557091396302e-05,0.0,0.0,-2.7720682282961207e-07,-8.528751095582265e-06,-0.0001909913553390652,0.0015063629252836108,0.005056354217231274,-0.008906703442335129,-0.02512870728969574,-0.06108648329973221,-0.10756215453147888,-0.17032237350940704,-0.19195643067359924,-0.20668035745620728,-0.1973540037870407,-0.2115914225578308,-0.2242438942193985,-0.16416549682617188,-0.12656520307064056,-0.08699314296245575,-0.0030770828016102314,0.04809432476758957,0.05137978494167328,0.06942199170589447,0.06681133061647415,0.0377039909362793,0.0038210467901080847,-0.0027616482693701982,-0.0005354576278477907,0.0,0.0,-7.488384289899841e-05,-2.4874598238966428e-06,0.0014486019499599934,0.014181893318891525,0.021299539133906364,0.010858926922082901,-0.009043894708156586,-0.02847016230225563,-0.12083306908607483,-0.13928404450416565,-0.15037107467651367,-0.1856399029493332,-0.10937728732824326,-0.08004887402057648,-0.006885243579745293,-0.007280429359525442,0.03081008419394493,0.08738815784454346,0.08750291913747787,0.11142377555370331,0.1613168567419052,0.1898404061794281,0.07626984268426895,0.002372528426349163,-0.004804128780961037,-7.686317985644564e-05,0.0,-2.462914778789127e-07,-0.0007137506036087871,-0.006326152477413416,0.0046867127530276775,0.042571473866701126,0.05757640674710274,0.04865071177482605,-0.00985005870461464,-0.024246038869023323,-0.09714948385953903,-0.15346895158290863,-0.17613783478736877,-0.24686110019683838,-0.29022926092147827,-0.29258742928504944,-0.22108277678489685,-0.14277100563049316,-0.1685275137424469,-0.032032616436481476,-0.02075060084462166,0.07403942942619324,0.22946277260780334,0.26029351353645325,0.10354472696781158,0.010851889848709106,0.0069705103524029255,-0.0008913487545214593,0.0,-3.7915000575594604e-05,-0.0010871358681470156,-0.0020224826876074076,0.016649266704916954,0.06643059849739075,0.04738042131066322,0.028923839330673218,-0.044194482266902924,-0.08667685836553574,-0.14230453968048096,-0.20673109591007233,-0.3226940929889679,-0.30377906560897827,-0.37814199924468994,-0.4133577048778534,-0.3780996799468994,-0.24496795237064362,-0.23627969622612,-0.12505121529102325,-0.10275005549192429,0.003235272830352187,0.16272462904453278,0.21143895387649536,0.06675109267234802,0.0010091596050187945,0.005982292350381613,-0.0005545545136556029,-8.644064655527472e-05,-0.0028287391178309917,-0.0038619081024080515,-0.01005485374480486,-0.0031966757960617542,0.04111975058913231,0.0024615677539259195,-0.0320507250726223,-0.10661660879850388,-0.06298446655273438,-0.1425798535346985,-0.16355769336223602,-0.22434578835964203,-0.23335401713848114,-0.3897325396537781,-0.4545035660266876,-0.3558468818664551,-0.20192040503025055,-0.11501426994800568,-0.08223045617341995,-0.08308626711368561,-0.030808527022600174,0.035123061388731,0.08319692313671112,0.010337178595364094,-0.013776643201708794,-0.01632869802415371,-0.0008199631702154875,-0.0002467346203047782,-0.00381040689535439,-0.006185530219227076,-0.03701120987534523,-0.04429594427347183,-0.015688376501202583,-0.05292539671063423,-0.06416372209787369,-0.08006472140550613,-0.03701722249388695,-0.11024640500545502,-0.08633404225111008,-0.07834221422672272,-0.17167147994041443,-0.4848811626434326,-0.42879971861839294,-0.11585226655006409,-0.025371553376317024,-0.03804253414273262,-0.06137064844369888,-0.06726962327957153,-0.04960164800286293,-0.05714502930641174,-0.06732473522424698,-0.12767939269542694,-0.08746900409460068,-0.02692534029483795,-0.0022920300252735615,-0.0002909935428760946,-0.005226633977144957,-0.013821857050061226,-0.042775966227054596,-0.03928050026297569,-0.05611705407500267,-0.08047757297754288,-0.04808534309267998,-0.015279341489076614,0.08935227990150452,0.06238242983818054,0.05606255680322647,0.1278904378414154,-0.19560226798057556,-0.5430291295051575,-0.24228939414024353,0.04344440996646881,0.09900607913732529,-0.033343490213155746,-0.011404999531805515,-0.11538860201835632,-0.10267092287540436,-0.1315631866455078,-0.19575898349285126,-0.15323321521282196,-0.09383194148540497,-0.029587915167212486,-0.0005889892927370965,-3.4948487154906616e-05,-0.0049210768193006516,-0.027640992775559425,-0.03048652969300747,-0.05122409760951996,-0.05200802907347679,-0.019586389884352684,0.02891695126891136,0.12184194475412369,0.18908725678920746,0.2623443007469177,0.27014973759651184,0.23392079770565033,-0.2986939549446106,-0.473947674036026,-0.009238322265446186,0.28702986240386963,0.14053009450435638,-0.018280137330293655,-0.04424090310931206,-0.11978769302368164,-0.11092127859592438,-0.13503198325634003,-0.1563413292169571,-0.1118994951248169,-0.0517810620367527,-0.009187801741063595,-0.00045862013939768076,-1.5300522591132903e-06,-0.007809788454324007,-0.026823008432984352,-0.03955462574958801,-0.06828204542398453,-0.019241493195295334,0.0904974490404129,0.1967848837375641,0.2665504515171051,0.21703848242759705,0.3748157322406769,0.5021694898605347,0.42047518491744995,-0.08758997172117233,-0.26998013257980347,0.1205403134226799,0.3248533308506012,0.15925240516662598,0.05857421085238457,0.028666464611887932,0.014435559511184692,0.026191284880042076,-0.022011227905750275,-0.07924510538578033,-0.04171804338693619,-0.006332894787192345,-0.005023556761443615,-0.0011375370668247342,-1.1501910535116622e-07,-0.005928277038037777,-0.018452221527695656,-0.034729473292827606,-0.016348112374544144,0.10253436118364334,0.2548820376396179,0.2902582287788391,0.2903873026371002,0.2641574740409851,0.40774402022361755,0.5490438342094421,0.3257857859134674,-0.056717634201049805,-0.09154108166694641,0.15678191184997559,0.2676984667778015,0.2546466886997223,0.17924855649471283,0.1291293054819107,0.16603539884090424,0.10426617413759232,0.04735168442130089,-0.02258758805692196,-0.04102541506290436,0.007670179475098848,4.9520372158440296e-06,-0.002364295767620206,-2.406579369562678e-05,-0.0032443637028336525,-0.008498908020555973,-0.010933658108115196,0.08605178445577621,0.20081880688667297,0.28692781925201416,0.33947163820266724,0.304392009973526,0.2575458586215973,0.3286840319633484,0.3807004988193512,0.2156066745519638,-0.05352633446455002,-0.04639168083667755,0.11628922075033188,0.3356171250343323,0.3938902020454407,0.262830525636673,0.27400678396224976,0.17977014183998108,0.08094099164009094,0.037464700639247894,-0.016682660207152367,-0.047720156610012054,-0.013137498870491982,-0.008998531848192215,-0.00024102401221171021,-1.191318551718723e-05,-8.200833690352738e-06,0.0016169487498700619,0.0074534970335662365,0.06750111281871796,0.15670107305049896,0.23384928703308105,0.30965080857276917,0.3240495026111603,0.2599138021469116,0.22041825950145721,0.24672465026378632,0.13188523054122925,-0.03404407575726509,0.05999349430203438,0.250537633895874,0.4169735014438629,0.39052674174308777,0.24225598573684692,0.19522492587566376,0.0819220170378685,0.02523113787174225,0.011783381924033165,-0.041657742112874985,-0.10999269038438797,-0.05418111011385918,0.0002823847462423146,-0.0007944272365421057,-2.3047054128255695e-05,-5.0481612561270595e-06,-0.00345052033662796,-0.023993460461497307,-0.024195753037929535,0.05077347904443741,0.14278148114681244,0.25940370559692383,0.3245074450969696,0.20964917540550232,0.032170433551073074,0.035503942519426346,0.10094384849071503,0.13353167474269867,0.2932513952255249,0.438196063041687,0.39171040058135986,0.28751060366630554,0.1970248967409134,0.10910006612539291,0.13041071593761444,0.05459599196910858,-0.048007283359766006,-0.09206711500883102,-0.09737687557935715,-0.05572495236992836,-0.015772392973303795,-0.000470565224532038,0.0,-1.0699031918193214e-05,-0.004070955794304609,-0.06097199022769928,-0.05790594592690468,-0.04279090091586113,0.029555793851614,0.13907113671302795,0.2023150771856308,0.138569638133049,0.025100886821746826,0.0068597751669585705,0.10409262776374817,0.27763184905052185,0.4317896366119385,0.3941726088523865,0.2926325798034668,0.15504670143127441,0.10010368376970291,-0.027404675260186195,0.0063973525539040565,-0.009028737433254719,-0.120442695915699,-0.11472733318805695,-0.0922076553106308,-0.05679185688495636,-0.008976394310593605,-0.0017083707498386502,-0.0003439197316765785,-9.919092008203734e-06,-0.004824824631214142,-0.05520239844918251,-0.07696662843227386,-0.09240294247865677,-0.08328984677791595,-0.020841293036937714,0.009109728038311005,-0.02097632735967636,-0.13959187269210815,-0.10207311809062958,0.06242096424102783,0.19574624300003052,0.2541658878326416,0.2246178388595581,0.14894835650920868,-0.08167356997728348,-0.08850333094596863,-0.11805631965398788,-0.07092496007680893,-0.0916232317686081,-0.17426300048828125,-0.12537981569766998,-0.08615702390670776,-0.047486498951911926,-0.003802747931331396,-2.7001906346413307e-05,-1.3459118264336212e-08,-0.0008855328196659684,-0.006373732350766659,-0.028182057663798332,-0.07563301175832748,-0.08502093702554703,-0.15211567282676697,-0.19861240684986115,-0.2403881847858429,-0.28171196579933167,-0.32304903864860535,-0.26100048422813416,-0.23593834042549133,-0.10776813328266144,0.03318928927183151,0.032493706792593,-0.0088743781670928,-0.12092240899801254,-0.11781612038612366,-0.13743677735328674,-0.1337026208639145,-0.11351103335618973,-0.1821456253528595,-0.1222119927406311,-0.06846865266561508,-0.02329998090863228,-0.0014772186987102032,-1.2341750732502987e-07,0.0,-5.1158487622160465e-05,-0.00362764741294086,-0.026579616591334343,-0.07253912091255188,-0.11569251120090485,-0.19076375663280487,-0.2863742709159851,-0.3612121045589447,-0.3590739667415619,-0.3304182291030884,-0.22683978080749512,-0.19971860945224762,-0.22112315893173218,-0.10685179382562637,-0.02924361452460289,-0.007144236471503973,-0.06988070160150528,-0.08887547999620438,-0.12073655426502228,-0.09641263633966446,-0.06791412830352783,-0.1112455502152443,-0.08722798526287079,-0.04513533413410187,-0.020814521238207817,-0.0006929514347575605,-1.760452164489834e-06,-1.1911183861457175e-07,-6.73119131988642e-07,-0.0005327425897121429,-0.019239386543631554,-0.048732973635196686,-0.0859663262963295,-0.17938651144504547,-0.24180148541927338,-0.23186789453029633,-0.24556578695774078,-0.22246567904949188,-0.12842226028442383,-0.1264045238494873,-0.17204029858112335,-0.11624452471733093,-0.006334951147437096,-0.04145687073469162,-0.03817138820886612,-0.04419371485710144,0.003014835063368082,0.0007837240118533373,-0.007117230445146561,-0.050332020968198776,-0.038880087435245514,-0.029182223603129387,-0.017804566770792007,-0.0005767917609773576,-2.557265232905337e-10,-1.1538959654444625e-07,-5.595758167942222e-08,-0.0005024069687351584,-0.01474171131849289,-0.028352422639727592,-0.059013932943344116,-0.10362318158149719,-0.147642582654953,-0.16429179906845093,-0.16472728550434113,-0.11443385481834412,-0.08100457489490509,-0.09080895781517029,-0.09717512875795364,-0.10001754760742188,-0.03760877996683121,-0.03739312291145325,0.013659527525305748,0.05367191880941391,0.1387472003698349,0.10127239674329758,0.09617611765861511,0.002231805818155408,-0.03157470375299454,-0.019236262887716293,-0.011135578155517578,0.00013496397878043354,-4.721105173466356e-10,0.0,0.0,-0.00014499350800178945,-0.005017276853322983,-0.015818404033780098,-0.03644420579075813,-0.05061966925859451,-0.06910957396030426,-0.07719749212265015,-0.05827360972762108,-0.036994047462940216,-0.025533195585012436,-0.06869623810052872,-0.07709907740354538,-0.04360393434762955,-0.0013174552004784346,0.04138587415218353,0.03786540403962135,0.15015006065368652,0.1595710813999176,0.14705108106136322,0.09620212763547897,0.003455718979239464,-0.020392637699842453,-0.018511248752474785,-0.001339163864031434,0.00018089952936861664,0.0,0.0,0.0,-1.8653536244528368e-05,-0.00040246464777737856,-0.007799943443387747,-0.016826296225190163,-0.03674560785293579,-0.050050992518663406,-0.052571870386600494,-0.028226520866155624,-0.030166693031787872,-0.02050109952688217,-0.09446767717599869,-0.1091943010687828,-0.07655266672372818,-0.05411570891737938,-0.017195964232087135,-0.062745101749897,0.007872426882386208,0.06882916390895844,0.04619498550891876,0.016501782462000847,-0.0015906699700281024,-0.006250149104744196,-0.013588693924248219,0.0013019528705626726,-4.7100664232857525e-05,0.0,0.0,0.0,-1.3203194612287916e-05,-4.4765256461687386e-05,-0.0027631891425698996,-0.02101670764386654,-0.04021693393588066,-0.07219815999269485,-0.12332469969987869,-0.12815313041210175,-0.1408267468214035,-0.20154958963394165,-0.24385270476341248,-0.20812594890594482,-0.18299302458763123,-0.21397855877876282,-0.22717049717903137,-0.24730639159679413,-0.19492554664611816,-0.15077686309814453,-0.09274453669786453,-0.0511031299829483,-0.024149306118488312,-0.013565733097493649,-0.010232014581561089,-0.00023843522649258375,-4.991234163753688e-05,0.0,0.0,0.0,0.0,0.0,-0.0011158910347148776,-0.006450049113482237,-0.019821621477603912,-0.035347308963537216,-0.06576447188854218,-0.10271482914686203,-0.11847497522830963,-0.14557035267353058,-0.16678009927272797,-0.17492923140525818,-0.19657260179519653,-0.1763208508491516,-0.15640850365161896,-0.14805522561073303,-0.1450052261352539,-0.10189476609230042,-0.050256967544555664,-0.021319657564163208,-0.007882542908191681,-9.139726171270013e-05,-0.0004440843767952174,-3.848870733236254e-08,0.0,0.0,0.0,0.0,0.0,0.0,-1.0761845032902784e-06,-6.23563119006576e-06,-0.0013219285756349564,-0.007685770280659199,-0.009472732432186604,-0.0063550639897584915,-0.012647680006921291,-0.009047478437423706,-0.011361276730895042,-0.010602064430713654,-0.020737353712320328,-0.011123795062303543,-0.010758627206087112,-0.01144731231033802,-0.015004846267402172,-0.008761121891438961,-0.003027703147381544,-0.0009782674023881555,-0.0010854932479560375,-0.00024735467741265893,0.0,0.0,0.0,0.0,0.0,0.0,0.0,0.0,0.0,0.0,0.0,0.0,0.0,0.0,0.0,0.0,-1.7386306353728287e-05,-3.815674062934704e-05,-9.650537435845763e-08,-4.0210572649357346e-09,0.0,0.0,0.0,0.0,0.0,0.0,0.0,0.0,0.0,0.0,0.0,0.0,0.0,0.0,0.0,0.0,-8.524484940153343e-08,-2.509165994979412e-07,-4.751023425342282e-06,-1.109686400013743e-05,-9.356771624879912e-05,-0.0001074873362085782,-0.0002756490430328995,-0.0002839389198925346,-0.0013079331256449223,-0.0013826803769916296,-0.0009566701482981443,-0.0012404010631144047,-0.0011246807407587767,-0.0006055830745026469,-0.0004459751071408391,-0.0005189234507270157,-0.00032774527790024877,-7.309246575459838e-05,-4.92826529807644e-06,-3.1158519959717523e-06,0.0,0.0,0.0,0.0,0.0,0.0,-1.4626481288360083e-06,-3.971917612943798e-05,-2.2524562155012973e-05,-4.025902399007464e-06,-3.1247433071257547e-05,-0.0007398413144983351,-0.0010126299457624555,-0.003034585388377309,-0.009140935726463795,-0.017886310815811157,-0.020982250571250916,-0.025637255981564522,-0.029936740174889565,-0.021999720484018326,-0.006567036267369986,0.005454497877508402,0.006862198002636433,0.003283183556050062,-0.0072358353063464165,-0.008638092316687107,-0.005244553089141846,-0.0035765348002314568,-0.001682109897956252,-0.0003251184825785458,0.0,0.0,0.0,0.0,-3.5618745641841087e-06,-0.0001760714512784034,0.0019252854399383068,-0.006871422287076712,-0.006378239020705223,-0.014111841097474098,-0.017628034576773643,-0.02880644053220749,-0.03091493993997574,-0.05701790004968643,-0.051149170845746994,-0.05602381005883217,-0.03558812290430069,-0.005421001464128494,0.006351548712700605,0.047274310141801834,0.09297455102205276,0.08316439390182495,0.08042076230049133,0.050717420876026154,0.016646215692162514,-0.020655162632465363,-0.017617840319871902,0.005262216553092003,0.0008977651013992727,0.0,0.0,-2.5863087103061844e-06,-0.00017254753038287163,-0.0012409827904775739,-0.0073142871260643005,-0.03978092595934868,-0.05865700915455818,-0.07069867104291916,-0.12106805294752121,-0.12176478654146194,-0.10145077109336853,-0.08950008451938629,-0.12160638719797134,-0.15665540099143982,-0.08330845832824707,0.04773597791790962,0.09726706892251968,0.12949611246585846,0.14474321901798248,0.05418165400624275,-0.017562078312039375,0.08874291926622391,0.08687660098075867,0.10328695923089981,0.06887274235486984,0.016982771456241608,0.001235150033608079,-0.0006728647858835757,0.0,0.0,-0.00045182224130257964,-0.007677073124796152,-0.03077060543000698,-0.06718078255653381,-0.10822904855012894,-0.09288933873176575,-0.09569307416677475,-0.02179911732673645,-0.007358471862971783,-0.003527483670040965,-0.02850652113556862,-0.07673057913780212,-0.0873088464140892,-0.0826486274600029,0.026390157639980316,0.08223366737365723,0.06914744526147842,0.04044222831726074,0.10158836841583252,0.11935926228761673,0.21467626094818115,0.23712414503097534,0.16774345934391022,0.07700381428003311,0.02138177491724491,0.0016079923370853066,0.0,-8.660282219352666e-06,-0.0005397341446951032,-0.02753659337759018,-0.06859242171049118,-0.09042207151651382,-0.1005876287817955,-0.04630011320114136,-0.01627998985350132,0.020719606429338455,0.05247023329138756,0.06029612571001053,0.02109101042151451,-0.008211510255932808,0.02010958269238472,-0.0544966384768486,-0.056284088641405106,-0.010012803599238396,0.030382990837097168,0.053961362689733505,0.0510469451546669,0.0668887197971344,0.20426149666309357,0.32927024364471436,0.3802468478679657,0.20142292976379395,0.06617366522550583,0.01138223521411419,0.0,-0.0003163986839354038,-0.005957768298685551,-0.03946780040860176,-0.13878098130226135,-0.1528119444847107,-0.11280108243227005,-0.0019094280432909727,0.06275828927755356,0.06952614337205887,0.12180817872285843,0.12758836150169373,0.04788048565387726,-0.05779312178492546,0.004583555273711681,-0.08982250094413757,0.01524288672953844,0.0563039593398571,0.055829886347055435,0.07458092272281647,0.07992936670780182,0.08462940156459808,0.1658972203731537,0.3763243556022644,0.4826821982860565,0.33008503913879395,0.07724691182374954,0.006593160331249237,-1.495280798735621e-06,-0.00026482250541448593,-0.0074532367289066315,-0.047785863280296326,-0.18267789483070374,-0.1792294979095459,-0.1273459643125534,-0.03719893842935562,0.05792419612407684,0.05048626661300659,0.09426295012235641,0.10200919955968857,-0.01025337167084217,-0.09854384511709213,-0.11071739345788956,-0.17261061072349548,-0.09949168562889099,-0.06913825869560242,-0.03765968978404999,0.03764209523797035,0.10662186145782471,0.10960199683904648,0.16077262163162231,0.4674544334411621,0.6448590755462646,0.41751691699028015,0.10287032276391983,0.006218239199370146,-2.921051964221988e-05,-0.0004462238575797528,-0.004781569819897413,-0.049944743514060974,-0.15671251714229584,-0.16537535190582275,-0.0683726966381073,0.03284585103392601,0.1294739991426468,0.12484731525182724,0.17222535610198975,0.2395256906747818,0.15129335224628448,-0.0008497219532728195,-0.13185648620128632,-0.23055247962474823,-0.2631796598434448,-0.17203012108802795,-0.07228238880634308,-0.026916516944766045,0.04739769920706749,0.18761619925498962,0.2818024158477783,0.5287222862243652,0.7658184170722961,0.5184589624404907,0.10437723994255066,0.007397934794425964,-3.824306986643933e-05,-0.001390181016176939,-0.004983832128345966,-0.0346553735435009,-0.07875895500183105,-0.0798945352435112,0.03527040407061577,0.15442226827144623,0.222310870885849,0.26116928458213806,0.24165411293506622,0.2601664066314697,0.2541426420211792,0.1571909338235855,0.029268082231283188,-0.11809591948986053,-0.19206923246383667,-0.2509581744670868,-0.2517697513103485,-0.2190789431333542,-0.10494141280651093,-0.0026881811209023,0.06194417178630829,0.30167603492736816,0.5798622369766235,0.46822604537010193,0.11825048923492432,0.004647077526897192,-1.8342509065405466e-05,-0.002798778470605612,-0.0071037402376532555,-0.03250398859381676,-0.03553586080670357,-0.0005009949672967196,0.1437743604183197,0.15046587586402893,0.14210882782936096,0.15330342948436737,0.16896897554397583,0.23233303427696228,0.29664915800094604,0.33515772223472595,0.11343079060316086,-0.11185108870267868,-0.18828223645687103,-0.21906468272209167,-0.25707757472991943,-0.383341908454895,-0.44058355689048767,-0.3748105764389038,-0.34858042001724243,-0.1292407214641571,0.11500589549541473,0.21595443785190582,0.06344140321016312,0.003279086435213685,-5.877652711205883e-06,-0.00344031467102468,-0.006655075121670961,-0.01481100358068943,0.0013652609195560217,0.04410937801003456,0.15480493009090424,0.11115862429141998,0.08641797304153442,0.030097488313913345,0.1874268501996994,0.29269346594810486,0.3180890679359436,0.2797805964946747,0.013529266230762005,-0.11655499041080475,-0.28866079449653625,-0.2847582995891571,-0.2497551590204239,-0.3036637306213379,-0.38089555501937866,-0.5168412923812866,-0.5576655268669128,-0.4348313510417938,-0.24497130513191223,0.008025528863072395,0.023966358974575996,-0.0006070508970879018,-5.309342441250919e-07,-0.0006424036691896617,-0.0019609539303928614,-0.00016846951621118933,0.022763773798942566,0.071377694606781,0.07246461510658264,0.1147814691066742,0.07771477103233337,0.10425571352243423,0.2560513913631439,0.3053662180900574,0.320360392332077,0.17686966061592102,-0.023572124540805817,-0.21579094231128693,-0.34204378724098206,-0.21406769752502441,-0.14770102500915527,-0.10683543980121613,-0.13172242045402527,-0.28603044152259827,-0.36257681250572205,-0.3645712435245514,-0.22270798683166504,-0.033276114612817764,-0.0007565530831925571,-0.003663610201328993,0.0018805779982358217,-0.00026120280381292105,-0.0006562432972714305,0.0011721327900886536,0.010204687714576721,-0.005464175250381231,-0.014579490758478642,0.002723610494285822,0.09079474955797195,0.20047475397586823,0.26508745551109314,0.14901599287986755,0.15440817177295685,0.08539105206727982,-0.07683632522821426,-0.1780451089143753,-0.24149319529533386,-0.22271321713924408,-0.14634205400943756,-0.1371387541294098,-0.043676719069480896,-0.10779896378517151,-0.15323008596897125,-0.18711933493614197,-0.12323784083127975,-0.03858359530568123,-0.00504788663238287,-0.00012157047603977844,0.0005962308496236801,-0.00026021746452897787,-0.0009729171870276332,-0.008648097515106201,-0.022257599979639053,-0.09682831168174744,-0.10743976384401321,-0.12459513545036316,-0.02174399048089981,0.10033302009105682,0.11228207498788834,0.08461671322584152,0.07162261009216309,-0.06578351557254791,-0.2442358434200287,-0.24728773534297943,-0.19084064662456512,-0.17381562292575836,-0.013804079964756966,-0.06077295169234276,-0.06579417735338211,-0.04925774037837982,-0.07329215109348297,-0.058839812874794006,-0.04699325934052467,-0.026656482368707657,-0.008804266341030598,-0.0030689681880176067,-0.00011162072769366205,-0.00013694808876607567,-0.0019966401159763336,-0.006581328809261322,-0.026096167042851448,-0.08283845335245132,-0.1252162754535675,-0.2647300660610199,-0.27702775597572327,-0.19736628234386444,-0.09175332635641098,-0.07814925909042358,-0.08643872290849686,-0.19772343337535858,-0.26568809151649475,-0.20272472500801086,-0.1613428145647049,-0.06416746973991394,-0.018178347498178482,-0.010808233171701431,0.006059494335204363,-0.02498507872223854,0.0031259420793503523,0.028862861916422844,-0.0034276742953807116,-0.02327660284936428,-0.012693029828369617,-0.005253265146166086,0.0,-0.00037082593189552426,-0.003631576895713806,-0.0027976285200566053,0.008030224591493607,0.05928700044751167,0.11712174117565155,-0.13651828467845917,-0.26757222414016724,-0.25706836581230164,-0.27757251262664795,-0.2736935317516327,-0.33209484815597534,-0.31909066438674927,-0.23595544695854187,-0.14741627871990204,-0.04113759845495224,0.04918644577264786,0.08358479291200638,0.060443539172410965,0.08536431193351746,0.017812436446547508,-0.023277821019291878,0.05238059535622597,0.0344197154045105,-0.029184754937887192,-0.005687814671546221,-0.0007523391977883875,-4.675758827943355e-05,-0.0004558963992167264,-0.00403817230835557,-0.006723009515553713,0.058871492743492126,0.14909344911575317,0.3135175108909607,0.12973521649837494,-0.044888827949762344,-0.1312793493270874,-0.18769992887973785,-0.19817952811717987,-0.15969856083393097,-0.08304986357688904,-0.023678386583924294,-0.046544138342142105,-0.0015598582103848457,0.06917280703783035,-0.001573116984218359,0.08359109610319138,0.11193162202835083,0.020833011716604233,0.03003530018031597,0.08004064857959747,0.06571288406848907,-0.019687490537762642,-0.0024932369124144316,-0.0016564795514568686,-6.032790622612083e-08,-0.0006766364676877856,-0.005592748522758484,-0.010294090956449509,0.0627206340432167,0.19052891433238983,0.2847693860530853,0.2060641050338745,0.21096479892730713,0.10419191420078278,0.03566568344831467,0.05500255152583122,0.07978898286819458,0.0728129893541336,0.03670606017112732,0.03428297117352486,-0.019524378702044487,0.005569508299231529,0.05318363755941391,0.07085014879703522,0.10187091678380966,0.04871159419417381,0.06352183222770691,0.10428013652563095,0.06154307723045349,-0.006765497382730246,-0.005098665598779917,-0.0006318354862742126,0.0,-0.00021786137949675322,-0.0033065471798181534,-0.0007058465853333473,0.019165193662047386,0.16666552424430847,0.19934634864330292,0.11736831814050674,0.22349265217781067,0.2038142830133438,0.10456298291683197,0.18131516873836517,0.08980274200439453,0.02317875251173973,-0.05783829465508461,0.003963387571275234,0.03840888291597366,0.08323483169078827,0.10021477192640305,0.0731397345662117,0.049147605895996094,0.08806368708610535,0.17534573376178741,0.10090868175029755,0.031139357015490532,0.00720950635150075,0.0006669209687970579,2.771400431811344e-05,-1.8126186773770314e-07,-5.699723624275066e-05,-0.004439523443579674,0.0028748037293553352,0.04261276125907898,0.027562875300645828,0.08029846847057343,0.10380414873361588,0.12317550927400589,0.1354636251926422,0.084072545170784,0.0825626477599144,0.04051339998841286,-0.003798246616497636,0.028114227578043938,0.057994578033685684,0.06277569383382797,0.08534818142652512,0.018880311399698257,0.01947110891342163,0.11260329186916351,0.18253712356090546,0.1618301421403885,0.07626457512378693,0.020871181041002274,0.011595255695283413,0.0020667659118771553,-2.1708544295506726e-07,-1.7559743525907834e-07,-3.008894509548554e-06,-0.0037630866281688213,-0.000598450715187937,0.04318259656429291,-0.018368680030107498,-0.05347881093621254,-0.0234622061252594,0.03175833448767662,0.08524486422538757,0.02922346629202366,0.06479158252477646,0.10575742274522781,0.16438597440719604,0.11670658737421036,0.08547023683786392,0.10940715670585632,0.04987882822751999,0.05623570457100868,0.08691719174385071,0.09554482251405716,0.07636617869138718,0.07332844287157059,0.05042739585042,0.021598713472485542,0.008430727757513523,0.0019644112326204777,-4.0077316043607425e-07,0.0,0.0,-0.0008739260374568403,0.002393266186118126,0.030611131340265274,0.03050854057073593,-0.03722856193780899,-0.057027507573366165,0.0307810939848423,0.0835050642490387,0.1414605975151062,0.12156102061271667,0.12867704033851624,0.08132832497358322,0.07073652744293213,0.04616475850343704,0.10870759934186935,0.02974078431725502,-0.044971905648708344,0.0022899301256984472,0.04339079186320305,0.009874389506876469,0.01588873378932476,0.029865127056837082,0.016257954761385918,0.0024706153199076653,0.0010388336377218366,0.0,0.0,0.0,-0.0003589909174479544,0.0006132171838544309,-0.007105881813913584,-0.015843821689486504,-0.03152662515640259,-0.0004721415461972356,0.023861389607191086,0.1227414533495903,0.09860873967409134,0.13335204124450684,0.17208926379680634,0.21227949857711792,0.17053627967834473,0.14145393669605255,0.05793137103319168,0.04589271545410156,0.03968202322721481,0.019525576382875443,0.008531342260539532,-0.0028569332789629698,0.024123741313815117,0.027392016723752022,0.017389269545674324,-0.0022307520266622305,-5.786598921986297e-05,0.0,0.0,0.0,-2.519130475775455e-06,0.0021470002830028534,-0.001590946689248085,-0.014714657329022884,-0.02329160086810589,-0.026329591870307922,-0.020520349964499474,0.024409567937254906,0.043656278401613235,0.09005650132894516,0.11806851625442505,0.12175314873456955,0.057055164128541946,0.0818333625793457,0.08011969923973083,0.07185503840446472,0.02554372325539589,0.0168971698731184,0.005288552492856979,0.02471960335969925,0.036494333297014236,0.029989706352353096,0.016917847096920013,-4.308646566641983e-06,-2.5303625079686753e-06,0.0,0.0,0.0,0.0,0.0,-0.001189880771562457,-0.0027729165740311146,-0.00713270902633667,-0.01958584412932396,-0.023423144593834877,-0.015539423562586308,-0.003434064332395792,0.0155028086155653,0.014789074659347534,-0.012350767850875854,-0.029729818925261497,-0.005920759867876768,-0.007115131244063377,-0.011950611136853695,-0.024901438504457474,-0.013680825009942055,0.0018061528680846095,0.005057692062109709,0.002600328531116247,-8.072401396930218e-05,-8.253597115981393e-06,-5.8726072893477976e-08,0.0,0.0,0.0,0.0,0.0,0.0,-1.282374796574004e-06,-2.312074684596155e-05,-3.480467421468347e-05,-0.00011477270891191438,-0.0004695102106779814,-0.000615129538346082,-4.867661482421681e-05,0.0010968450224027038,-0.0003212222654838115,-0.0030157300643622875,-0.004896301776170731,-0.0037977362517267466,-0.0030297348275780678,-0.0030885396990925074,-0.0031014273408800364,-0.002649696310982108,-0.0031994858291000128,-0.0012866831384599209,-0.0013719790149480104,-0.0003108849632553756,0.0,0.0,0.0,0.0,0.0,0.0,0.0,0.0,0.0,0.0,0.0,0.0,0.0,0.0,0.0,0.0,0.002183216856792569,0.004753689747303724,-2.9825940146110952e-05,-1.2427474302967312e-06,0.0,0.0,0.0,0.0,0.0,0.0,0.0,0.0,0.0,0.0,0.0,0.0,0.0,0.0,0.0,0.0,1.4974183613958303e-05,7.694412488490343e-05,0.0066337576135993,0.01605815440416336,0.009884435683488846,0.009722509421408176,0.019296856597065926,0.026319699361920357,0.04235975816845894,0.028178993612527847,0.009347177110612392,0.012928924523293972,0.010821973904967308,0.009064878337085247,0.008047563955187798,0.00991958286613226,0.008063506335020065,0.007564348168671131,0.006073963828384876,0.0013065313687548041,0.0,0.0,0.0,0.0,0.0,0.0,6.495606612588745e-06,-9.13078838493675e-05,0.0006280220695771277,0.0003654028696473688,0.011313204653561115,0.038514602929353714,0.04738404229283333,0.05016985535621643,0.10883427411317825,0.1284058392047882,0.15559716522693634,0.15760910511016846,0.13578355312347412,0.11853905767202377,0.1225452572107315,0.11454305052757263,0.11668860167264938,0.10766052454710007,0.07234960794448853,0.054826341569423676,0.039148565381765366,0.018912484869360924,0.0005640704184770584,-0.0028766985051333904,0.0,0.0,0.0,0.0,-5.470799806062132e-05,0.00047120486851781607,0.0024725503753870726,0.0039603556506335735,0.024525819346308708,0.05228981748223305,0.06464064866304398,0.07954537868499756,0.11902926117181778,0.12301255017518997,0.10301505774259567,0.15342679619789124,0.17121082544326782,0.14631135761737823,0.13731014728546143,0.17139117419719696,0.21330466866493225,0.21410849690437317,0.15355943143367767,0.14719119668006897,0.12335017323493958,0.09507538378238678,0.055960286408662796,0.00017548457253724337,0.003702340181916952,0.0,0.0,-8.598184564334588e-08,-0.0001922960509546101,-0.00034037622390314937,0.004405640531331301,-0.0023009064607322216,0.0027926417533308268,0.029847312718629837,0.05925458297133446,0.043162330985069275,0.04777102172374725,-0.02281607873737812,-0.04062480852007866,-0.011060485616326332,-0.023207230493426323,-0.0345696359872818,0.048040930181741714,0.13422611355781555,0.17845316231250763,0.2172297239303589,0.21165922284126282,0.22035744786262512,0.19674627482891083,0.13688217103481293,0.04673386737704277,0.00999301765114069,0.0018154021818190813,0.002393777947872877,0.0,0.0,0.00039780567749403417,-0.005551566369831562,0.0034254947677254677,-0.030521724373102188,-0.02385759726166725,-0.0078936368227005,0.0343385748565197,0.002028426621109247,-0.01711355708539486,-0.1438422054052353,-0.12234536558389664,-0.15022806823253632,-0.09675189107656479,-0.11428111046552658,-0.10157736390829086,-0.012487635016441345,0.09779643267393112,0.16322435438632965,0.14196068048477173,0.12038825452327728,0.09404689073562622,0.10281933844089508,0.06114589795470238,0.006400583777576685,0.0036892006173729897,0.00357513758353889,0.0,-1.082496368098873e-07,-0.00020043749827891588,-0.008200643584132195,-0.001986715942621231,-0.03542390093207359,-0.05584279075264931,-0.01383636798709631,-0.009446007199585438,-0.06014638394117355,-0.13224554061889648,-0.15017515420913696,-0.12641815841197968,-0.1864016205072403,-0.1748371422290802,-0.14955295622348785,-0.15318280458450317,-0.12902066111564636,-0.10755787789821625,-0.043967846781015396,-0.021983427926898003,-0.04334751144051552,-0.04084229841828346,-0.024600008502602577,-0.014730015769600868,-0.01514512486755848,-0.011531738564372063,-0.0005276438314467669,0.0,-5.617870556307025e-06,-0.0013168915174901485,-0.012525741010904312,-0.010978956706821918,-0.043699853122234344,-0.07779251039028168,-0.02399253286421299,-0.03432546183466911,-0.09330100566148758,-0.15263308584690094,-0.13650164008140564,-0.15380355715751648,-0.19459739327430725,-0.19171492755413055,-0.16321510076522827,-0.2263970524072647,-0.2298635095357895,-0.24217629432678223,-0.21661479771137238,-0.1980234831571579,-0.18616771697998047,-0.1816905438899994,-0.1304321587085724,-0.04588354006409645,-0.0374663770198822,-0.013068781234323978,-0.0015918879071250558,-4.572965281113284e-06,-5.602025339612737e-05,-0.0018095707055181265,-0.01422865130007267,-0.020497895777225494,-0.06843447685241699,-0.09533169865608215,-0.055565934628248215,-0.06253942102193832,-0.10600654780864716,-0.15861588716506958,-0.13888992369174957,-0.17052198946475983,-0.18968786299228668,-0.2357085794210434,-0.26957741379737854,-0.31333687901496887,-0.3513031303882599,-0.43050092458724976,-0.3870501220226288,-0.2945595383644104,-0.2498403638601303,-0.24817579984664917,-0.20056694746017456,-0.12340597808361053,-0.06452547013759613,-0.02962672896683216,-0.002010216237977147,-1.2799860996892676e-05,-9.621374920243397e-05,-0.002348078414797783,-0.01888572797179222,-0.030631260946393013,-0.083313949406147,-0.07908405363559723,-0.027840081602334976,-0.03389463201165199,-0.12236443907022476,-0.1347043514251709,-0.12377923727035522,-0.14545398950576782,-0.20228609442710876,-0.16763325035572052,-0.2795414626598358,-0.39710310101509094,-0.48699504137039185,-0.49451160430908203,-0.43488839268684387,-0.3189409375190735,-0.24286362528800964,-0.25729838013648987,-0.18827247619628906,-0.1367584466934204,-0.09804628789424896,-0.03747241944074631,-0.0027283267118036747,-1.5203641851257998e-05,-0.0002486462763044983,-0.005355438217520714,-0.01790783926844597,-0.040767356753349304,-0.07089175283908844,-0.04590605944395065,